4302 50
</s> 0.008005 0.008839 -0.007661 -0.006556 0.002733 0.006042 0.001882 0.000423 -0.007207 0.004437 -0.008713 0.002499 -0.001503 -0.001914 -0.006631 -0.003764 0.005159 0.006051 0.005938 0.003195 0.003090 -0.007605 -0.008192 0.009939 0.007603 0.006180 -0.001208 0.008031 -0.000990 0.001469 -0.000298 -0.005966 0.002625 -0.002675 -0.007651 0.009508 0.008759 -0.002190 -0.000452 0.001018 -0.007275 -0.008014 0.009109 0.000126 -0.005165 -0.006084 -0.006153 0.003394 0.000403 0.002662 
, -0.024603 -0.246387 0.209951 -0.071097 -0.027418 -0.162299 0.175221 -0.059797 -0.145269 -0.206939 0.238860 0.152028 -0.335089 0.010872 0.009151 0.315591 0.142057 0.007737 0.048505 0.179870 -0.087333 0.120121 0.248267 0.027439 -0.251506 -0.086997 -0.401668 0.195890 0.081811 0.058075 0.093148 0.123640 -0.192783 0.056922 -0.027352 0.223854 0.293420 0.085236 0.409336 -0.347072 -0.334165 0.376822 -0.010606 -0.072114 0.301481 0.073507 -0.308793 0.272611 -0.206886 -0.134315 
die 0.099458 -0.318152 0.255723 -0.084475 -0.071773 -0.184890 0.156932 -0.041864 -0.148624 -0.173904 0.257924 0.188645 -0.346467 -0.108100 0.101386 0.361075 0.019415 -0.019766 0.063172 0.064180 -0.192812 0.117078 0.273021 -0.006843 -0.263417 -0.157263 -0.255753 0.135051 0.034282 0.147679 0.042947 0.110890 -0.200705 -0.100267 -0.034864 0.081223 0.189159 0.042514 0.284620 -0.299965 -0.379609 0.440554 0.051903 -0.136851 0.223234 0.137991 -0.275658 0.298326 -0.255565 -0.152061 
. 0.054797 -0.238017 0.136894 -0.099472 0.026272 -0.073565 0.149119 -0.081226 -0.233637 -0.190515 0.152492 0.175976 -0.347162 -0.086399 0.053415 0.288881 0.005541 0.079056 0.031374 0.068122 -0.181031 0.051078 0.217365 0.031591 -0.244538 -0.164651 -0.329720 0.004802 0.142256 0.106125 0.039059 0.153009 -0.358580 0.001883 -0.014207 0.180387 0.288501 0.100336 0.327862 -0.227506 -0.320704 0.434148 0.027916 -0.102466 0.274425 0.110523 -0.192132 0.286915 -0.303676 -0.197182 
der 0.109951 -0.358768 0.160377 -0.073787 0.037455 -0.121210 0.214117 -0.127547 -0.221206 -0.051436 0.204295 0.182867 -0.357703 -0.136433 0.020119 0.308383 0.090292 0.076683 0.035765 0.042084 -0.156325 0.144582 0.261054 0.086259 -0.312947 -0.075573 -0.215730 0.033027 0.070523 0.167484 0.077113 0.168134 -0.334990 0.058889 -0.017389 0.163613 0.235667 0.015228 0.183721 -0.193736 -0.313419 0.464768 0.103844 -0.095950 0.272543 0.126084 -0.198073 0.366429 -0.301571 -0.203620 
und 0.121465 -0.287525 0.118107 -0.132260 0.032690 -0.131477 0.120841 -0.104506 -0.156982 -0.148680 0.238448 0.166307 -0.372490 -0.099287 0.072235 0.231940 0.065453 0.021268 0.026111 0.046715 -0.164594 0.143802 0.228030 0.004880 -0.247747 -0.188831 -0.303600 0.094995 0.074753 0.110405 0.065504 0.185481 -0.294375 0.054159 0.039541 0.204668 0.243617 0.028687 0.290618 -0.229878 -0.334145 0.449204 0.049140 -0.165819 0.274911 0.076693 -0.214385 0.252879 -0.265659 -0.153497 
in 0.097456 -0.219848 0.215121 -0.054000 -0.000765 -0.124090 0.158062 -0.122518 -0.223157 -0.154201 0.138139 0.247981 -0.331682 -0.060241 -0.045301 0.324861 0.058938 0.063083 0.102870 0.043393 -0.137290 0.112369 0.253166 0.056245 -0.316141 -0.152110 -0.334351 0.096378 0.161322 0.056368 0.032538 0.221977 -0.382704 0.054554 0.072926 0.216844 0.238404 0.043517 0.318795 -0.234076 -0.304484 0.400959 0.012423 -0.101102 0.316923 0.052646 -0.223556 0.250629 -0.252435 -0.200374 
zu 0.147181 -0.232238 0.218301 -0.072846 -0.034687 -0.168784 0.140558 0.001593 -0.157308 -0.208600 0.150326 0.224677 -0.320887 -0.076277 0.100325 0.365390 0.046441 0.035258 0.061493 0.098341 -0.107454 0.098116 0.234570 0.029991 -0.303368 -0.146360 -0.319465 0.092518 0.070176 0.078057 0.083303 0.162349 -0.226202 -0.025650 0.042461 0.147383 0.201204 0.047255 0.349302 -0.281219 -0.332422 0.387471 -0.002632 -0.089551 0.280066 0.101290 -0.254509 0.240003 -0.268362 -0.205382 
den 0.101120 -0.281497 0.200204 -0.061546 0.038186 -0.069654 0.114089 -0.082348 -0.217069 -0.158860 0.163623 0.189379 -0.365806 0.031041 -0.057150 0.293466 0.046873 0.134289 0.074915 0.106273 -0.113205 0.111083 0.312521 0.106808 -0.293263 -0.122686 -0.367520 0.052173 0.150471 0.089532 0.038869 0.186584 -0.425615 0.065100 0.057377 0.203902 0.273025 0.085027 0.321023 -0.212813 -0.331793 0.394109 0.066801 -0.141224 0.276937 0.059210 -0.168618 0.287084 -0.259591 -0.135728 
wir 0.062040 -0.185805 0.208001 -0.049814 -0.028151 -0.137951 0.163535 0.006232 -0.137665 -0.168322 0.177427 0.209613 -0.348389 -0.085131 0.076801 0.313943 0.053455 0.013345 0.060143 0.133952 -0.146965 0.028653 0.288857 0.020464 -0.280575 -0.081014 -0.344646 0.093151 0.118274 0.157671 0.060832 0.159583 -0.214788 -0.022830 0.003528 0.132009 0.260188 0.101755 0.361451 -0.211831 -0.309315 0.418486 -0.001534 -0.122453 0.264694 0.076969 -0.222359 0.286924 -0.284043 -0.208547 
daß 0.192797 -0.279033 0.204171 -0.035086 0.019114 -0.062429 0.113803 -0.118323 -0.231647 -0.164365 0.100136 0.165021 -0.336586 0.063530 -0.083019 0.251435 0.110401 0.102019 0.075186 0.132846 -0.040270 0.102831 0.251272 0.116886 -0.299811 -0.035191 -0.384121 0.087780 0.126994 0.072248 0.064320 0.197612 -0.432886 0.052321 0.102255 0.250137 0.254035 0.001607 0.318324 -0.305843 -0.325526 0.321271 0.069558 -0.154324 0.280309 0.075006 -0.226512 0.237745 -0.288909 -0.179893 
das 0.129241 -0.271729 0.196701 -0.080104 0.038783 -0.082815 0.152785 -0.120781 -0.253910 -0.135039 0.093539 0.151243 -0.382878 0.097559 -0.085599 0.213035 0.101150 0.109512 0.058065 0.133288 -0.064511 0.085921 0.301826 0.149350 -0.327699 -0.082776 -0.344341 0.067584 0.089447 0.087289 0.061430 0.237119 -0.412701 0.089985 0.068221 0.280396 0.198860 0.018379 0.324806 -0.204292 -0.288287 0.389736 0.041424 -0.165309 0.289410 0.081645 -0.210253 0.249236 -0.288614 -0.195561 
ich 0.223629 -0.235728 0.236553 -0.068232 -0.011067 -0.040683 0.089410 -0.192799 -0.268648 -0.167468 0.011482 0.079489 -0.327004 0.273933 -0.250636 0.185942 0.111972 0.203213 0.088187 0.196319 -0.001307 0.098425 0.279392 0.220155 -0.255648 -0.026900 -0.414827 0.063510 0.096505 0.050118 0.089366 0.306909 -0.669995 0.137395 0.215907 0.347320 0.282775 0.022919 0.322990 -0.291528 -0.323045 0.340694 0.078987 -0.208138 0.300142 0.046926 -0.247243 0.260742 -0.253252 -0.115850 
für 0.151274 -0.239487 0.201478 -0.092958 0.019565 -0.056414 0.147722 -0.068973 -0.206347 -0.169831 0.098266 0.193294 -0.358709 -0.047950 -0.037774 0.253202 0.051972 0.026749 0.043805 0.090392 -0.110062 0.091284 0.224949 0.055213 -0.338378 -0.082462 -0.375291 0.076004 0.131274 0.113682 0.028460 0.160419 -0.359773 0.039315 0.071522 0.223453 0.253377 0.033620 0.335632 -0.220408 -0.316495 0.406567 0.022133 -0.178965 0.225247 0.090405 -0.209354 0.264948 -0.281023 -0.133601 
von 0.132445 -0.226200 0.147667 -0.112217 0.017471 -0.105249 0.163649 -0.045790 -0.197635 -0.141960 0.228157 0.214828 -0.383609 -0.128000 0.051495 0.291494 0.029496 0.050093 0.023916 0.021380 -0.146734 0.077790 0.257435 0.034441 -0.270115 -0.156425 -0.306258 0.045265 0.169600 0.145250 0.039898 0.174572 -0.307369 0.056012 -0.031099 0.114127 0.264932 0.117150 0.291710 -0.152398 -0.352666 0.464099 0.045347 -0.102792 0.249673 0.165226 -0.189277 0.353047 -0.326694 -0.205616 
ist 0.152510 -0.251810 0.200084 -0.075344 0.007017 -0.102357 0.147782 -0.132352 -0.184094 -0.164715 0.101762 0.196406 -0.328119 0.021172 -0.049668 0.228416 0.074201 0.093110 0.069551 0.098740 -0.063661 0.102692 0.234031 0.083763 -0.350162 -0.087016 -0.378236 0.061680 0.134020 0.087324 0.041620 0.191737 -0.377315 0.020558 0.089341 0.263907 0.236108 0.045481 0.324035 -0.274751 -0.306474 0.369978 0.051721 -0.154330 0.270801 0.061441 -0.241996 0.236902 -0.291269 -0.173414 
nicht 0.132964 -0.278666 0.211672 -0.085491 -0.002944 -0.161529 0.147454 -0.083948 -0.148169 -0.129733 0.142724 0.214603 -0.336887 -0.039005 0.067777 0.283966 0.077234 0.038238 0.058625 0.116765 -0.134432 0.058363 0.280540 0.045226 -0.290855 -0.110679 -0.312062 0.090982 0.114821 0.131882 0.075503 0.183074 -0.265334 -0.032851 0.041623 0.156523 0.207128 0.021257 0.343066 -0.227005 -0.321193 0.399644 0.002559 -0.166480 0.283122 0.064123 -0.230215 0.267408 -0.260112 -0.214599 
es 0.120400 -0.251590 0.216313 -0.115499 -0.052758 -0.138990 0.161871 -0.045277 -0.122440 -0.130415 0.185568 0.194009 -0.358433 -0.111082 0.082825 0.294860 0.062755 0.070973 0.049036 0.097328 -0.117872 0.050530 0.278762 0.018032 -0.261461 -0.165415 -0.308744 0.101570 0.086033 0.148689 0.065513 0.140264 -0.209801 0.022521 -0.036742 0.162878 0.223958 0.071331 0.340894 -0.264616 -0.311916 0.375982 0.042758 -0.130999 0.253746 0.117114 -0.180723 0.302024 -0.254875 -0.204784 
<unk> 0.081368 -0.259224 0.196991 -0.088152 -0.005682 -0.173504 0.166078 0.018080 -0.143562 -0.137257 0.233313 0.234754 -0.367290 -0.178230 0.158732 0.345338 0.032564 -0.017386 -0.011530 0.046257 -0.200750 0.068578 0.287023 -0.075159 -0.229395 -0.126999 -0.235775 0.123918 0.088480 0.149670 0.055001 0.122048 -0.130433 0.020263 -0.056015 0.034636 0.248902 0.125899 0.339776 -0.252065 -0.354241 0.406326 -0.008094 -0.100359 0.228613 0.122119 -0.227391 0.326476 -0.294177 -0.234885 
auf 0.083386 -0.269722 0.160571 -0.097164 -0.005448 -0.172315 0.204634 -0.003292 -0.161196 -0.085687 0.183199 0.204429 -0.317355 -0.179995 0.097966 0.363150 0.074592 0.040581 -0.005741 0.041580 -0.165168 0.051742 0.230051 -0.012579 -0.262993 -0.125895 -0.260455 0.088522 0.103526 0.111882 0.096066 0.170769 -0.184294 0.017788 0.003067 0.093152 0.216327 0.100096 0.276362 -0.193116 -0.354656 0.447313 0.050363 -0.086113 0.277136 0.109388 -0.233858 0.376093 -0.287502 -0.196326 
eine 0.077071 -0.267447 0.185764 -0.097046 0.013178 -0.102504 0.149519 -0.074383 -0.181762 -0.153841 0.144477 0.201162 -0.348881 -0.051171 0.007004 0.262645 0.045341 0.109730 0.025908 0.084240 -0.152372 0.065487 0.237810 0.027970 -0.312664 -0.127609 -0.346019 0.109908 0.087182 0.167245 0.083958 0.178047 -0.347296 0.029602 0.005000 0.169808 0.243994 0.096092 0.350651 -0.189376 -0.333388 0.412024 0.064722 -0.125081 0.240412 0.125136 -0.217791 0.321454 -0.273935 -0.185529 
des 0.169774 -0.277772 0.125208 -0.106582 0.052269 -0.066139 0.169930 -0.022842 -0.231553 -0.092507 0.198424 0.246233 -0.406294 -0.175730 0.026755 0.249310 0.003568 0.006583 0.016318 -0.021001 -0.126607 0.052784 0.257520 -0.022480 -0.304175 -0.138860 -0.346225 0.020868 0.152936 0.142941 0.016925 0.107314 -0.372588 0.059754 0.015055 0.144829 0.236533 0.094063 0.311278 -0.191570 -0.328648 0.482622 0.067384 -0.126122 0.204889 0.140851 -0.188001 0.261060 -0.247115 -0.154695 
im 0.118290 -0.292404 0.205162 -0.063354 -0.012061 -0.073336 0.147148 -0.102121 -0.222340 -0.132712 0.134164 0.187086 -0.309228 -0.042145 0.005183 0.260521 0.061623 0.068333 0.049140 0.115943 -0.101673 0.094760 0.257940 0.043319 -0.308004 -0.072435 -0.350512 0.085974 0.094832 0.103260 0.072138 0.181585 -0.372964 0.029570 0.072389 0.215714 0.233542 0.032753 0.290207 -0.231178 -0.306673 0.421511 0.050364 -0.166636 0.242924 0.092143 -0.238099 0.288257 -0.256939 -0.184958 
werden 0.097196 -0.271440 0.199452 -0.110381 0.012706 -0.108290 0.156150 -0.049090 -0.180816 -0.173792 0.148265 0.165528 -0.344230 -0.076036 0.027682 0.316053 0.022062 0.054891 0.030907 0.085236 -0.146375 0.066762 0.228713 0.061299 -0.289537 -0.114256 -0.339058 0.105241 0.075091 0.097572 0.061538 0.198246 -0.293845 0.017009 -0.002424 0.171526 0.266016 0.039561 0.320696 -0.205291 -0.300814 0.428724 0.054121 -0.092810 0.279679 0.081371 -0.224773 0.322300 -0.276203 -0.167545 
sie 0.105821 -0.241096 0.237765 -0.075072 -0.032321 -0.136996 0.147390 -0.034367 -0.165192 -0.137664 0.134744 0.229706 -0.314242 -0.059044 0.076018 0.332436 0.066845 0.042088 0.039604 0.088749 -0.165369 0.059309 0.266766 -0.005885 -0.263236 -0.109508 -0.316461 0.134714 0.089802 0.131206 0.081426 0.166295 -0.233809 0.023627 0.045354 0.132756 0.223611 0.056369 0.359320 -0.253105 -0.321838 0.425775 0.020054 -0.141994 0.268503 0.060833 -0.252153 0.276720 -0.243088 -0.193841 
auch 0.123777 -0.274973 0.205396 -0.058767 0.002243 -0.133913 0.127234 -0.030524 -0.166644 -0.130984 0.179065 0.174600 -0.331080 -0.060572 0.067961 0.328095 0.042537 0.057298 0.034862 0.082312 -0.152252 0.097401 0.259403 0.040054 -0.250880 -0.112504 -0.321899 0.117984 0.097981 0.145270 0.090478 0.208058 -0.244290 0.017941 -0.005676 0.099613 0.263074 0.078277 0.320521 -0.221946 -0.333106 0.416562 0.057978 -0.096383 0.277127 0.092901 -0.191517 0.353113 -0.246472 -0.184766 
mit 0.120400 -0.251530 0.202855 -0.095304 -0.021303 -0.069869 0.131405 -0.068886 -0.193843 -0.166130 0.160352 0.176368 -0.364362 -0.030860 0.015263 0.274980 0.028513 0.065590 -0.001288 0.099021 -0.157734 0.086536 0.293804 0.006859 -0.293344 -0.100402 -0.336199 0.079357 0.074390 0.116168 0.068608 0.180963 -0.331673 0.032060 0.019315 0.192125 0.245769 0.053888 0.326748 -0.263263 -0.276082 0.398506 0.052094 -0.131686 0.250404 0.072796 -0.213556 0.331852 -0.291816 -0.208088 
kommission 0.114756 -0.238867 0.182955 -0.109945 0.039053 -0.088747 0.153076 -0.114387 -0.230010 -0.144021 0.145898 0.169102 -0.336358 -0.032866 -0.059071 0.244242 0.055831 0.087178 0.058468 0.076174 -0.087156 0.095361 0.261978 0.062035 -0.284561 -0.102606 -0.319838 0.048432 0.101804 0.110699 0.026183 0.190135 -0.407742 0.098471 0.049114 0.212016 0.259206 0.061997 0.294343 -0.229209 -0.328626 0.427809 0.097435 -0.142381 0.261333 0.097563 -0.164271 0.277464 -0.256696 -0.184260 
dem 0.153936 -0.261142 0.200272 -0.107481 0.036707 -0.119324 0.133093 -0.081181 -0.236641 -0.172170 0.123585 0.167397 -0.368913 -0.001544 -0.041012 0.263085 0.032075 0.116717 0.051153 0.065643 -0.099433 0.087772 0.249207 0.080906 -0.310168 -0.085554 -0.355483 0.079466 0.128088 0.084717 0.050173 0.211646 -0.426607 0.076865 0.057892 0.204337 0.261242 0.058730 0.289269 -0.234290 -0.326863 0.385221 0.053637 -0.118747 0.252875 0.090060 -0.213361 0.280255 -0.280168 -0.186784 
- 0.089449 -0.216909 0.182972 -0.117810 -0.013628 -0.102207 0.178082 0.011741 -0.163924 -0.113043 0.223602 0.267518 -0.358055 -0.125971 0.079762 0.320991 0.031475 0.055713 0.060277 0.058425 -0.162919 0.069019 0.261062 -0.026421 -0.283901 -0.127770 -0.343483 0.094312 0.129806 0.132948 0.056210 0.151538 -0.248002 0.037803 -0.015341 0.098412 0.243602 0.096786 0.332150 -0.161526 -0.301745 0.436044 0.034772 -0.111679 0.253229 0.120886 -0.202403 0.315640 -0.261893 -0.216939 
sich 0.116290 -0.235534 0.233648 -0.107897 0.005353 -0.132393 0.157782 -0.101030 -0.218999 -0.145221 0.103860 0.177981 -0.324617 0.016422 -0.079180 0.284564 0.061941 0.108548 0.039690 0.108124 -0.101894 0.089623 0.221317 0.054966 -0.318016 -0.112681 -0.333919 0.092253 0.113853 0.123222 0.048212 0.202187 -0.385727 0.047885 0.062458 0.212069 0.230482 0.051642 0.337847 -0.250445 -0.303277 0.378228 0.074306 -0.139219 0.264699 0.064546 -0.222540 0.278096 -0.296130 -0.149134 
ein 0.143297 -0.239307 0.210216 -0.097590 -0.007321 -0.121083 0.142180 -0.055757 -0.179915 -0.174435 0.165118 0.234786 -0.371508 -0.048424 0.006543 0.289520 0.037396 0.067922 0.037752 0.069599 -0.098623 0.063149 0.264662 0.044614 -0.311034 -0.102066 -0.327117 0.110463 0.102503 0.107459 0.091890 0.179258 -0.312057 0.019659 0.052418 0.168213 0.218368 0.046141 0.354864 -0.236859 -0.322720 0.396551 0.044944 -0.134423 0.257219 0.092062 -0.251942 0.253669 -0.274002 -0.161306 
wird 0.104337 -0.241281 0.201222 -0.094532 -0.006991 -0.101218 0.174218 -0.026869 -0.175847 -0.138326 0.173102 0.202387 -0.350113 -0.073778 0.011120 0.274379 0.021716 0.073466 0.063056 0.075385 -0.119939 0.060093 0.253342 0.040572 -0.272277 -0.145411 -0.361819 0.079582 0.108775 0.138699 0.065257 0.183589 -0.292830 0.033179 0.006604 0.156016 0.254205 0.095817 0.353207 -0.236128 -0.320630 0.437191 0.069750 -0.162955 0.268602 0.092793 -0.202394 0.273733 -0.288194 -0.200070 
sind 0.067146 -0.235309 0.216540 -0.105184 -0.046575 -0.136697 0.170739 0.014436 -0.141937 -0.145019 0.228506 0.199742 -0.353548 -0.131305 0.161510 0.332059 0.019996 0.024378 -0.006000 0.075282 -0.179503 0.057339 0.270382 0.001382 -0.278511 -0.134707 -0.287652 0.118289 0.087363 0.138252 0.068597 0.138757 -0.177826 0.003117 -0.047093 0.075303 0.232701 0.078705 0.343224 -0.204640 -0.342067 0.433549 0.005094 -0.111121 0.243106 0.094534 -0.208790 0.286708 -0.294310 -0.228267 
wie 0.101543 -0.232812 0.207798 -0.061993 -0.029769 -0.129326 0.133149 -0.011479 -0.152401 -0.108572 0.176625 0.223070 -0.340350 -0.057463 0.059060 0.304450 0.073428 0.104782 0.015983 0.088479 -0.155629 0.097213 0.273214 0.004437 -0.291273 -0.122140 -0.309175 0.059188 0.104232 0.127077 0.060330 0.186907 -0.266878 0.018754 -0.013929 0.107190 0.234113 0.104895 0.302032 -0.238479 -0.296836 0.419319 0.025072 -0.117610 0.240577 0.094719 -0.178597 0.311001 -0.285299 -0.207358 
haben 0.072558 -0.257383 0.215248 -0.077764 -0.005280 -0.182447 0.157474 0.021904 -0.137300 -0.144236 0.214247 0.240686 -0.354985 -0.118322 0.093508 0.371579 0.042736 0.029017 0.023058 0.075814 -0.183897 0.049470 0.261536 -0.026102 -0.251642 -0.146098 -0.285573 0.082817 0.097420 0.156881 0.067740 0.175958 -0.165631 0.000023 -0.059003 0.073884 0.207294 0.107779 0.347676 -0.232701 -0.360335 0.437515 -0.002506 -0.095828 0.250249 0.091675 -0.225880 0.290710 -0.269050 -0.205685 
hat 0.111013 -0.283818 0.185968 -0.114209 0.028301 -0.086682 0.171541 -0.084673 -0.220931 -0.135542 0.160535 0.178373 -0.348129 -0.040126 -0.030006 0.285502 0.036328 0.094132 0.058127 0.081379 -0.139719 0.107855 0.274164 0.050258 -0.293530 -0.091539 -0.312980 0.073431 0.086073 0.107399 0.062363 0.219347 -0.368794 0.069964 0.045944 0.195691 0.244702 0.054244 0.302098 -0.229099 -0.306570 0.436940 0.062271 -0.132616 0.282843 0.069692 -0.210441 0.286511 -0.270364 -0.182630 
diese 0.137748 -0.269843 0.182626 -0.090036 -0.005478 -0.080098 0.142383 -0.123840 -0.216578 -0.199853 0.128118 0.181045 -0.327398 0.068077 -0.106985 0.253662 0.060784 0.110497 0.064003 0.089145 -0.080909 0.108442 0.255492 0.101362 -0.290191 -0.079080 -0.367666 0.075580 0.115316 0.083778 0.056057 0.190083 -0.494588 0.063400 0.124619 0.256930 0.271812 0.034126 0.331437 -0.284563 -0.297601 0.362591 0.054260 -0.138870 0.270473 0.082814 -0.188144 0.253279 -0.294472 -0.169091 
um 0.046718 -0.229372 0.175137 -0.104002 -0.052756 -0.174390 0.204786 0.068521 -0.088183 -0.112131 0.251338 0.274309 -0.343297 -0.271127 0.206601 0.382966 0.053361 -0.008372 -0.001338 0.035755 -0.210592 0.054190 0.251011 -0.109304 -0.246879 -0.207755 -0.268822 0.125829 0.076108 0.197917 0.057794 0.107650 -0.038163 -0.055769 -0.112404 0.008946 0.191159 0.148082 0.352502 -0.219681 -0.332976 0.473626 -0.015161 -0.119460 0.221106 0.123727 -0.237116 0.323092 -0.226708 -0.209186 
europäischen 0.118204 -0.275200 0.197903 -0.085408 0.009373 -0.127308 0.159077 -0.070149 -0.181575 -0.142503 0.176613 0.221065 -0.345742 -0.087893 0.030615 0.282228 0.012270 0.036376 0.034990 0.046844 -0.143730 0.082618 0.264381 0.011641 -0.311394 -0.135095 -0.292360 0.075760 0.096584 0.130881 0.033771 0.141766 -0.305507 0.027245 0.014042 0.155899 0.250158 0.088175 0.311722 -0.210850 -0.329045 0.410979 0.029573 -0.133550 0.233063 0.093091 -0.201320 0.324229 -0.282140 -0.177106 
als 0.120990 -0.258538 0.206467 -0.101309 0.005322 -0.126593 0.169282 -0.124289 -0.173093 -0.144419 0.152786 0.167250 -0.347839 -0.029611 -0.073788 0.233474 0.037297 0.077780 0.052197 0.062000 -0.106599 0.114853 0.258223 0.101954 -0.292694 -0.112454 -0.340923 0.072568 0.121952 0.113853 0.058169 0.191895 -0.394315 0.044541 0.037450 0.247254 0.227384 0.005498 0.298071 -0.242240 -0.320026 0.426436 0.061914 -0.171255 0.270689 0.062667 -0.199005 0.295791 -0.276726 -0.201918 
zur 0.151696 -0.275037 0.210570 -0.109204 0.002651 -0.074543 0.201911 -0.109965 -0.252869 -0.181245 0.158419 0.139813 -0.349377 -0.008887 -0.081695 0.247794 0.036222 0.077839 0.074966 0.068329 -0.079857 0.097397 0.249117 0.117041 -0.318175 -0.114875 -0.345650 0.037047 0.131849 0.068643 0.047549 0.183885 -0.507819 0.046545 0.085774 0.245500 0.247558 0.026843 0.290589 -0.246140 -0.320239 0.420972 0.078085 -0.124025 0.271114 0.089872 -0.178438 0.289690 -0.299037 -0.161337 
an 0.115707 -0.246310 0.187170 -0.126997 0.005628 -0.115673 0.197578 -0.054637 -0.200702 -0.121262 0.200903 0.167222 -0.365354 -0.057142 0.029499 0.277672 0.033469 0.056998 0.036115 0.070806 -0.107140 0.082341 0.245615 0.005146 -0.281000 -0.141557 -0.332178 0.038910 0.080765 0.142870 0.062183 0.160988 -0.324239 0.032138 0.021020 0.167656 0.249720 0.071749 0.312155 -0.191616 -0.315254 0.439795 0.049349 -0.123578 0.235938 0.090976 -0.177154 0.330355 -0.291726 -0.163949 
einer 0.060290 -0.254515 0.138822 -0.092476 0.020975 -0.142122 0.180650 0.005839 -0.166444 -0.122291 0.208013 0.248686 -0.362154 -0.197744 0.125633 0.351268 0.024102 0.019970 0.027707 0.050272 -0.188847 0.085891 0.278510 -0.016778 -0.269644 -0.153972 -0.256175 0.091993 0.086464 0.134040 0.074432 0.156546 -0.212486 0.032421 -0.068805 0.080498 0.240377 0.091334 0.304892 -0.204961 -0.325466 0.455707 0.053042 -0.104543 0.254250 0.116902 -0.196485 0.328199 -0.257548 -0.203319 
herr 0.211362 -0.230341 0.269352 -0.048643 0.020301 0.003104 0.120614 -0.289666 -0.334892 -0.229382 0.004953 0.137586 -0.318071 0.334122 -0.426400 0.195654 0.144501 0.224588 0.100477 0.194756 0.055156 0.095519 0.233451 0.237705 -0.346375 0.025188 -0.433752 0.048795 0.178643 0.015047 0.048043 0.317926 -0.792436 0.102218 0.368234 0.386423 0.240796 -0.040012 0.347168 -0.307128 -0.353617 0.321800 0.149040 -0.254500 0.285016 -0.001530 -0.244601 0.206602 -0.243887 -0.094465 
über 0.112131 -0.257785 0.167614 -0.101109 0.005752 -0.133008 0.138302 -0.040697 -0.153135 -0.113473 0.208961 0.229438 -0.393636 -0.127016 0.051854 0.293629 0.057167 0.018986 0.042378 0.051615 -0.163391 0.106473 0.242847 -0.022743 -0.227482 -0.143559 -0.305777 0.061238 0.090760 0.106880 0.022501 0.151685 -0.278265 0.065216 -0.005952 0.152618 0.256621 0.099131 0.288350 -0.184415 -0.323935 0.455901 0.022101 -0.137901 0.231955 0.101816 -0.203021 0.297588 -0.262282 -0.174630 
uns 0.098285 -0.269638 0.199507 -0.086104 -0.046100 -0.147936 0.165897 0.001735 -0.158187 -0.105897 0.220330 0.224224 -0.358436 -0.103322 0.089755 0.330189 0.063640 0.032458 0.020914 0.082282 -0.156846 0.081113 0.268385 -0.014708 -0.270808 -0.124987 -0.277096 0.069076 0.108549 0.190827 0.079285 0.148533 -0.223180 0.004390 -0.023595 0.131502 0.192305 0.056070 0.332512 -0.247198 -0.292124 0.397927 0.001002 -0.132273 0.233256 0.095713 -0.224508 0.269984 -0.264750 -0.198390 
bei 0.072592 -0.213465 0.181650 -0.084269 -0.010714 -0.132603 0.154521 0.006815 -0.127418 -0.117499 0.201423 0.229432 -0.359593 -0.177616 0.135831 0.355121 0.048934 0.049937 0.027801 0.074329 -0.200879 0.062711 0.268544 -0.016168 -0.256858 -0.124322 -0.266069 0.105179 0.097520 0.156433 0.077980 0.140955 -0.164362 0.036785 -0.045484 0.075698 0.260220 0.107007 0.295699 -0.230271 -0.329159 0.469368 0.033977 -0.132595 0.237616 0.125998 -0.244988 0.331256 -0.255667 -0.219017 
union 0.053964 -0.232787 0.138748 -0.079618 -0.002761 -0.132360 0.195657 -0.018133 -0.181650 -0.120286 0.211311 0.217987 -0.389546 -0.131550 0.115043 0.300446 0.010517 0.041960 0.033100 0.042447 -0.174646 0.091211 0.264506 0.000090 -0.278260 -0.173001 -0.285198 0.078233 0.097647 0.137796 0.086541 0.174440 -0.241247 0.022380 -0.035339 0.141777 0.239481 0.063871 0.348875 -0.212205 -0.336679 0.411163 0.040658 -0.125971 0.262320 0.085323 -0.236604 0.287925 -0.264570 -0.205721 
wenn 0.104029 -0.269695 0.204631 -0.094140 -0.002595 -0.100724 0.125158 -0.041118 -0.177697 -0.183854 0.150662 0.191542 -0.336408 -0.030624 0.019862 0.320082 0.025854 0.066550 0.043756 0.089320 -0.134435 0.062174 0.270036 0.043080 -0.281903 -0.103878 -0.340775 0.087892 0.118051 0.105885 0.052759 0.146974 -0.299220 0.024398 0.040366 0.143901 0.228967 0.075789 0.351243 -0.247420 -0.324842 0.391380 0.015917 -0.120710 0.245576 0.065041 -0.208858 0.286604 -0.279514 -0.200483 
aber 0.137709 -0.243361 0.235814 -0.102405 -0.027957 -0.144738 0.144604 -0.040990 -0.137895 -0.169369 0.137929 0.210653 -0.315514 -0.029008 0.045109 0.320023 0.052589 0.077885 0.034441 0.116859 -0.108560 0.087255 0.226261 0.031132 -0.301528 -0.072198 -0.329852 0.129575 0.088130 0.136206 0.073671 0.158886 -0.254070 0.016548 0.046657 0.172620 0.210510 0.066376 0.338073 -0.255116 -0.312328 0.394996 0.015836 -0.133578 0.252514 0.070017 -0.262851 0.283604 -0.262813 -0.186427 
00 0.148194 -0.218853 0.128066 -0.173408 0.059849 -0.125135 0.199747 -0.025759 -0.242995 -0.114473 0.208414 0.238847 -0.403528 -0.154815 0.024912 0.222661 -0.032698 0.028875 -0.002452 -0.018302 -0.192363 0.038280 0.197361 -0.043890 -0.240140 -0.212341 -0.325299 -0.013953 0.209671 0.178659 -0.008437 0.157913 -0.379426 0.021541 0.020380 0.047270 0.250014 0.115896 0.272703 -0.120577 -0.309521 0.471866 0.037311 -0.142370 0.212223 0.110222 -0.160949 0.330420 -0.240512 -0.178047 
möchte 0.207872 -0.262687 0.225004 -0.086698 0.007716 -0.073073 0.143239 -0.178267 -0.272403 -0.168818 0.032660 0.094695 -0.334056 0.201770 -0.252818 0.210577 0.071326 0.187391 0.093183 0.148038 -0.043779 0.114100 0.247625 0.189989 -0.319417 -0.051517 -0.396625 0.041162 0.137786 0.053394 0.041025 0.274398 -0.650852 0.146177 0.186141 0.331946 0.282183 0.002194 0.267838 -0.269172 -0.330689 0.332051 0.131114 -0.197692 0.277099 0.067320 -0.183869 0.263625 -0.269243 -0.143128 
müssen 0.119731 -0.228658 0.193496 -0.099526 0.013223 -0.119731 0.153759 -0.111644 -0.202612 -0.171563 0.141501 0.168113 -0.366558 -0.046017 -0.008735 0.279147 0.024721 0.060951 0.047285 0.064014 -0.140566 0.072450 0.251501 0.084020 -0.298760 -0.136892 -0.336493 0.066178 0.112430 0.111134 0.063980 0.194537 -0.340741 0.049562 0.009237 0.210817 0.245248 0.038666 0.288535 -0.200016 -0.325145 0.391066 0.066674 -0.120965 0.269596 0.085616 -0.182768 0.291924 -0.264050 -0.205381 
dieser 0.136336 -0.253284 0.170003 -0.069614 0.012142 -0.085909 0.137061 -0.079050 -0.197550 -0.180886 0.163361 0.194990 -0.362666 -0.037539 -0.025932 0.269271 0.054636 0.089533 0.064721 0.106487 -0.115405 0.104038 0.234595 0.067518 -0.300025 -0.086433 -0.322426 0.083983 0.130241 0.097043 0.077481 0.183555 -0.366639 0.045845 0.050125 0.207141 0.250485 0.038195 0.323503 -0.242846 -0.319226 0.417828 0.048637 -0.131290 0.250401 0.056236 -0.224976 0.270609 -0.279650 -0.171333 
nach 0.094651 -0.242520 0.151264 -0.111965 0.011134 -0.112073 0.180555 -0.046015 -0.196481 -0.161007 0.166770 0.238223 -0.366783 -0.079329 0.019986 0.283679 -0.004923 0.048045 0.043485 0.058623 -0.141119 0.065124 0.264288 0.030325 -0.278314 -0.151723 -0.324897 0.075430 0.114423 0.121202 0.074070 0.165856 -0.321150 0.029359 0.001977 0.129004 0.253452 0.068443 0.320105 -0.221165 -0.323595 0.406829 0.053980 -0.135429 0.277151 0.098753 -0.212489 0.316052 -0.277252 -0.191649 
parlament 0.207017 -0.283376 0.199179 -0.077895 0.047625 -0.028720 0.125323 -0.160712 -0.267553 -0.153111 0.104514 0.157528 -0.337433 0.109991 -0.115926 0.228106 0.068149 0.124873 0.066006 0.088866 -0.050431 0.107009 0.244105 0.132670 -0.339156 -0.074779 -0.372696 0.044133 0.131829 0.080703 0.049318 0.184517 -0.533270 0.063668 0.148214 0.282209 0.238361 0.019725 0.320507 -0.238565 -0.294855 0.342795 0.094890 -0.172487 0.244211 0.059195 -0.189927 0.269251 -0.276822 -0.155293 
vor 0.070464 -0.220050 0.169939 -0.086203 0.010750 -0.146329 0.166859 0.014647 -0.181477 -0.113600 0.248978 0.239776 -0.364011 -0.161596 0.169844 0.370606 0.024956 0.025812 0.006767 0.079672 -0.153434 0.070832 0.237382 -0.054829 -0.244212 -0.149453 -0.265912 0.099359 0.093912 0.139557 0.068359 0.137510 -0.117256 0.019122 -0.080715 0.088337 0.268916 0.124070 0.320440 -0.191107 -0.352352 0.455419 0.018973 -0.084064 0.241882 0.081337 -0.223997 0.309640 -0.243634 -0.194466 
nur 0.077470 -0.212140 0.196507 -0.075225 -0.001977 -0.157862 0.160652 -0.002443 -0.168412 -0.124232 0.204466 0.197679 -0.359202 -0.097548 0.093202 0.331888 0.072734 0.027358 0.020793 0.102943 -0.161349 0.061453 0.268615 0.016200 -0.231108 -0.151343 -0.294270 0.098757 0.069808 0.134110 0.098190 0.154777 -0.219907 0.014854 -0.044967 0.118200 0.229191 0.082959 0.332627 -0.204508 -0.336371 0.429943 0.021774 -0.099324 0.258594 0.079410 -0.199135 0.294700 -0.250022 -0.214325 
einen 0.139612 -0.277429 0.185475 -0.082926 0.009376 -0.098173 0.125614 -0.086675 -0.186627 -0.163003 0.152993 0.166448 -0.364431 -0.027307 -0.016406 0.262078 0.052184 0.083651 0.032070 0.065382 -0.103789 0.090778 0.255183 0.087368 -0.296582 -0.102099 -0.349581 0.055770 0.105557 0.117173 0.037664 0.187759 -0.414259 0.031176 0.046305 0.204833 0.240423 0.050486 0.316786 -0.233989 -0.305746 0.405596 0.061497 -0.143042 0.261181 0.081199 -0.213664 0.296863 -0.293981 -0.187621 
so 0.117719 -0.247011 0.204317 -0.094138 -0.028762 -0.128393 0.176702 -0.027465 -0.161237 -0.140626 0.172826 0.206300 -0.359846 -0.063126 0.022903 0.275906 0.027025 0.066596 0.038488 0.078526 -0.142802 0.066110 0.236940 0.036739 -0.266393 -0.141684 -0.296302 0.099417 0.083305 0.122342 0.052995 0.163242 -0.262807 0.034983 0.012776 0.138414 0.208269 0.073916 0.332786 -0.239444 -0.318423 0.384793 0.037515 -0.130360 0.241310 0.078320 -0.224561 0.286091 -0.255211 -0.203267 
muß 0.121237 -0.260767 0.177811 -0.094002 -0.012132 -0.092494 0.145908 -0.082439 -0.211922 -0.156780 0.173733 0.199933 -0.339973 -0.025421 -0.023455 0.265124 0.036213 0.075242 0.045255 0.077822 -0.116162 0.075827 0.239408 0.070752 -0.297053 -0.130815 -0.331676 0.067341 0.108391 0.101529 0.079613 0.198021 -0.357050 0.045203 0.056761 0.185591 0.253398 0.053918 0.321670 -0.230432 -0.307685 0.398805 0.059265 -0.119525 0.293703 0.089718 -0.186646 0.278835 -0.255616 -0.184285 
können 0.162727 -0.267758 0.235276 -0.074241 0.004871 -0.112472 0.135901 -0.104594 -0.182779 -0.161639 0.126636 0.189908 -0.340671 -0.020238 -0.013491 0.258048 0.081489 0.057924 0.053172 0.075056 -0.094633 0.074410 0.239899 0.062700 -0.320333 -0.106406 -0.348426 0.062492 0.122270 0.133304 0.043817 0.153646 -0.395059 0.019247 0.059940 0.211075 0.244499 0.029270 0.347136 -0.253743 -0.329707 0.393053 0.050221 -0.129120 0.280383 0.069845 -0.203156 0.263781 -0.293328 -0.164728 
diesem 0.120471 -0.244659 0.212271 -0.105335 0.021515 -0.118931 0.144390 -0.106518 -0.211475 -0.160877 0.133295 0.147818 -0.337859 0.054285 -0.063635 0.268491 0.072744 0.126525 0.070770 0.109894 -0.088803 0.104729 0.251365 0.101293 -0.275660 -0.096569 -0.343738 0.077935 0.128534 0.104005 0.059762 0.200535 -0.441022 0.062375 0.066951 0.237590 0.261057 0.012256 0.305029 -0.245441 -0.317564 0.379496 0.090266 -0.124727 0.272764 0.038808 -0.238080 0.260529 -0.249053 -0.184412 
zum 0.092969 -0.259079 0.174833 -0.089906 0.005877 -0.107017 0.149115 -0.030128 -0.194383 -0.127072 0.176485 0.207562 -0.354111 -0.106724 0.034517 0.309931 0.016135 0.042413 0.028524 0.054542 -0.171474 0.066959 0.267064 0.019313 -0.290244 -0.168343 -0.324752 0.077395 0.112893 0.108937 0.038061 0.179971 -0.317336 0.052090 0.017831 0.100870 0.238340 0.095484 0.314677 -0.213216 -0.335920 0.440213 0.061480 -0.124494 0.248438 0.086293 -0.198540 0.315651 -0.279982 -0.171374 
kann 0.144022 -0.264726 0.191616 -0.096560 0.021343 -0.078736 0.149143 -0.116258 -0.227615 -0.176359 0.138086 0.141423 -0.344299 0.015469 -0.058617 0.245297 0.050431 0.117184 0.036756 0.075772 -0.124786 0.073570 0.269707 0.090554 -0.306495 -0.112008 -0.338065 0.051238 0.096285 0.118076 0.052143 0.209394 -0.386809 0.035840 0.068644 0.220197 0.248047 0.056630 0.327357 -0.216164 -0.314485 0.399583 0.089043 -0.117790 0.256510 0.071069 -0.206756 0.306527 -0.280232 -0.188590 
noch 0.111776 -0.216421 0.191095 -0.101338 -0.031228 -0.148991 0.161398 0.002094 -0.149063 -0.127867 0.191825 0.214939 -0.336803 -0.106891 0.076870 0.325971 0.063517 0.036231 0.030264 0.079959 -0.145594 0.083647 0.227300 0.016012 -0.248742 -0.122031 -0.299796 0.094418 0.123119 0.142204 0.095367 0.162437 -0.215574 0.026665 -0.018546 0.113993 0.231538 0.105651 0.332808 -0.251694 -0.351057 0.415445 0.019442 -0.111376 0.275340 0.109454 -0.215725 0.285397 -0.233294 -0.200036 
aus 0.132704 -0.246962 0.177296 -0.104424 -0.005645 -0.120718 0.154613 -0.035688 -0.182325 -0.169340 0.176979 0.204397 -0.353630 -0.044099 0.034461 0.288396 0.028896 0.091672 0.022021 0.070980 -0.127511 0.070299 0.261060 0.048766 -0.253632 -0.138254 -0.324517 0.073763 0.099743 0.107808 0.055421 0.174786 -0.323412 0.045893 0.003591 0.137521 0.244751 0.084518 0.284667 -0.237163 -0.333991 0.400511 0.035132 -0.112676 0.258149 0.097651 -0.219134 0.300892 -0.281059 -0.169931 
0000 0.108820 -0.196994 0.039486 -0.217397 0.198228 -0.076952 0.228868 0.104273 -0.198442 -0.052132 0.287958 0.379869 -0.490202 -0.427227 0.212457 0.291003 -0.089092 -0.135852 -0.057911 -0.111907 -0.297164 -0.064960 0.195565 -0.171413 -0.200004 -0.301314 -0.331450 -0.070277 0.252074 0.205157 -0.075648 0.081068 -0.242351 0.015408 -0.096871 -0.074578 0.259952 0.279336 0.245341 -0.046977 -0.354261 0.554133 0.012669 -0.129889 0.147289 0.151393 -0.134844 0.290134 -0.212220 -0.186075 
was 0.135965 -0.225761 0.175547 -0.081882 0.008206 -0.113047 0.168491 -0.081484 -0.211876 -0.158999 0.149418 0.217052 -0.346499 -0.057990 0.029300 0.274020 0.041723 0.084999 0.070339 0.076020 -0.105918 0.078909 0.240238 0.045359 -0.281017 -0.110745 -0.317048 0.073226 0.137435 0.126733 0.031048 0.169792 -0.353669 0.039651 0.012802 0.178949 0.241972 0.063443 0.314585 -0.235985 -0.347628 0.401056 0.049487 -0.152725 0.281395 0.069353 -0.217074 0.261303 -0.279948 -0.190645 
: 0.149379 -0.259087 0.181828 -0.111096 0.039724 -0.080958 0.144965 -0.115424 -0.239890 -0.154851 0.129145 0.187213 -0.351149 -0.004856 -0.082685 0.263815 0.040367 0.057974 0.027647 0.075990 -0.096260 0.082013 0.228835 0.096539 -0.300424 -0.127766 -0.313483 0.028745 0.155038 0.091721 0.034322 0.158687 -0.416857 0.050723 0.100885 0.192033 0.234198 0.046434 0.315790 -0.208087 -0.296040 0.421282 0.072711 -0.126084 0.256221 0.108717 -0.180531 0.275059 -0.259644 -0.177271 
frau 0.196645 -0.288473 0.222302 -0.071947 0.029618 -0.040558 0.150103 -0.211007 -0.294165 -0.190837 0.034974 0.155324 -0.345434 0.194762 -0.272785 0.185935 0.082150 0.176187 0.121503 0.114724 -0.026812 0.100860 0.250889 0.194291 -0.322635 -0.038672 -0.427630 0.031089 0.159265 0.051416 0.046472 0.240078 -0.661924 0.096896 0.240205 0.358558 0.265293 -0.004917 0.303326 -0.283161 -0.349170 0.335918 0.103966 -0.206286 0.256404 0.055882 -0.222629 0.243595 -0.273636 -0.098999 
oder 0.097227 -0.234333 0.205722 -0.086996 -0.010726 -0.149247 0.147145 -0.026129 -0.169969 -0.169935 0.183413 0.224313 -0.347532 -0.128082 0.075139 0.314330 0.061793 0.054861 0.026615 0.044659 -0.192648 0.084704 0.266270 -0.009905 -0.257806 -0.126711 -0.308423 0.080814 0.085922 0.127619 0.051086 0.150661 -0.243951 0.010485 -0.038656 0.095719 0.232069 0.096486 0.339002 -0.232739 -0.306904 0.448529 0.026957 -0.113506 0.240759 0.087781 -0.192267 0.311794 -0.252811 -0.205804 
sehr 0.109144 -0.223784 0.239396 -0.079247 -0.038599 -0.086729 0.141075 -0.094075 -0.204455 -0.134956 0.109226 0.213535 -0.322945 0.055978 -0.114714 0.300142 0.095706 0.138497 0.026812 0.134189 -0.083003 0.063765 0.259963 0.100250 -0.331024 -0.115962 -0.353625 0.068168 0.100474 0.112186 0.082168 0.231286 -0.414912 0.090342 0.125548 0.207578 0.241563 0.038535 0.335885 -0.266799 -0.318478 0.397982 0.057559 -0.169465 0.243019 0.084786 -0.232842 0.257480 -0.270943 -0.159882 
präsident 0.192520 -0.251116 0.231715 -0.026009 0.037318 0.007588 0.125675 -0.270847 -0.333288 -0.199450 -0.007996 0.127929 -0.300972 0.280927 -0.369920 0.181680 0.086785 0.203820 0.127241 0.139811 0.040309 0.132186 0.229394 0.221077 -0.361099 0.011824 -0.416609 0.024036 0.125086 0.027663 0.039475 0.276618 -0.755012 0.134108 0.273722 0.381252 0.284270 -0.066156 0.299766 -0.289000 -0.314326 0.311084 0.128527 -0.225030 0.278185 0.021695 -0.228352 0.223556 -0.269636 -0.131283 
! 0.182105 -0.251291 0.230023 -0.065865 0.022533 -0.028477 0.131973 -0.229576 -0.319584 -0.189363 0.030191 0.096891 -0.307541 0.228405 -0.327705 0.154958 0.102616 0.196216 0.097560 0.122899 0.010186 0.110428 0.239531 0.234193 -0.327566 -0.010877 -0.426900 0.023029 0.127288 0.031488 0.040105 0.283995 -0.703394 0.102342 0.242101 0.403278 0.250075 -0.020359 0.285371 -0.260560 -0.297461 0.329220 0.107402 -0.204313 0.290294 0.023790 -0.197558 0.229585 -0.279588 -0.131733 
dies 0.138169 -0.241143 0.219216 -0.085051 0.007216 -0.114325 0.152402 -0.077577 -0.185662 -0.141734 0.148089 0.209103 -0.355174 -0.033913 -0.017827 0.278348 0.058171 0.079915 0.038816 0.087500 -0.121297 0.066064 0.239002 0.078149 -0.292273 -0.113428 -0.327218 0.090344 0.111381 0.122584 0.063222 0.179866 -0.342144 0.044686 0.044535 0.190293 0.239752 0.046254 0.328194 -0.234630 -0.310018 0.389124 0.055972 -0.127558 0.252796 0.079148 -0.216481 0.264712 -0.258671 -0.193344 
sein 0.079793 -0.226545 0.193424 -0.089633 -0.008044 -0.151116 0.143387 0.019429 -0.149368 -0.156308 0.224207 0.231850 -0.388122 -0.153938 0.143845 0.324023 0.023403 0.040953 0.009981 0.058454 -0.181816 0.047130 0.250043 -0.044282 -0.237547 -0.162155 -0.267757 0.092339 0.091658 0.163660 0.063231 0.140369 -0.179565 0.007592 -0.074317 0.101243 0.249625 0.118000 0.333937 -0.241569 -0.331088 0.424851 -0.006362 -0.101947 0.233113 0.100229 -0.194841 0.307935 -0.284335 -0.204929 
bericht 0.177829 -0.251953 0.195401 -0.119789 0.043209 -0.042395 0.170601 -0.119994 -0.228762 -0.149672 0.092315 0.175382 -0.382127 0.064694 -0.135394 0.223759 0.037746 0.086664 0.077434 0.071984 -0.082547 0.068852 0.251050 0.099769 -0.289587 -0.097255 -0.358731 0.021282 0.161447 0.086600 0.017996 0.168757 -0.531642 0.085490 0.135935 0.249927 0.267874 0.037637 0.288486 -0.222553 -0.326128 0.369890 0.098533 -0.145958 0.252288 0.065026 -0.198860 0.256381 -0.251106 -0.124731 
" 0.092424 -0.275491 0.166047 -0.119499 0.028944 -0.145364 0.201546 -0.050833 -0.166372 -0.108826 0.194827 0.223561 -0.396314 -0.161307 0.051688 0.320342 0.044879 -0.007654 -0.009570 0.036341 -0.181831 0.102417 0.275826 -0.012111 -0.250387 -0.187388 -0.281670 0.082094 0.076133 0.124717 0.035694 0.172759 -0.217334 0.026509 -0.021609 0.102650 0.188465 0.115317 0.286981 -0.192478 -0.374638 0.449457 0.062227 -0.144797 0.281074 0.128275 -0.233584 0.298049 -0.230314 -0.218256 
dieses 0.192563 -0.266918 0.214465 -0.089090 0.015447 -0.070377 0.146675 -0.180600 -0.269978 -0.154580 0.113634 0.149663 -0.327877 0.090201 -0.149428 0.226388 0.069130 0.130360 0.082966 0.121913 -0.080463 0.122700 0.259474 0.149480 -0.318239 -0.075652 -0.386871 0.066985 0.110946 0.081706 0.041068 0.224717 -0.564229 0.092010 0.151370 0.296224 0.260612 -0.012123 0.312384 -0.272726 -0.299280 0.370773 0.074313 -0.157889 0.274888 0.060340 -0.181061 0.258170 -0.282927 -0.145950 
einem 0.126811 -0.256966 0.208473 -0.088300 -0.012121 -0.146722 0.182407 -0.027466 -0.162268 -0.143417 0.186834 0.216346 -0.350435 -0.086762 0.067369 0.331757 0.047647 0.043378 0.047815 0.069588 -0.156830 0.076405 0.277090 0.025372 -0.282496 -0.119293 -0.326759 0.111465 0.102156 0.105639 0.075424 0.144591 -0.274681 0.027114 -0.008423 0.152890 0.232842 0.085804 0.325865 -0.250890 -0.313245 0.434707 0.045091 -0.124631 0.264236 0.104750 -0.228210 0.300236 -0.291349 -0.189216 
? 0.073468 -0.248591 0.191176 -0.106773 0.003265 -0.152577 0.155086 -0.012376 -0.155394 -0.141480 0.199816 0.208940 -0.377904 -0.131845 0.087461 0.338854 0.026624 0.042600 0.017234 0.071013 -0.177615 0.057114 0.272870 0.000509 -0.272750 -0.125385 -0.303863 0.073733 0.089684 0.148021 0.059448 0.166181 -0.235261 0.032193 -0.022106 0.094164 0.245434 0.095112 0.312816 -0.235130 -0.326479 0.449256 0.021861 -0.109962 0.246873 0.108263 -0.235119 0.326151 -0.280107 -0.186282 
durch 0.124996 -0.237115 0.197322 -0.073999 -0.019263 -0.144038 0.160736 -0.017263 -0.151413 -0.138315 0.206900 0.242336 -0.352610 -0.121244 0.111190 0.319344 0.060432 0.052971 0.031408 0.057967 -0.156310 0.082118 0.259804 -0.025604 -0.261615 -0.140893 -0.286308 0.106042 0.125665 0.154022 0.065660 0.130278 -0.225073 0.007610 -0.006958 0.103228 0.224439 0.063481 0.348730 -0.254454 -0.321604 0.432602 0.037697 -0.113108 0.250578 0.084537 -0.236899 0.288948 -0.269056 -0.223676 
man 0.111780 -0.217107 0.177019 -0.104387 -0.017405 -0.155836 0.189225 -0.013120 -0.153396 -0.136722 0.209328 0.228377 -0.351727 -0.159094 0.116226 0.326700 0.052221 0.072786 0.001716 0.064987 -0.197966 0.056563 0.258136 -0.013487 -0.224886 -0.139077 -0.270168 0.087262 0.101255 0.129146 0.080569 0.158371 -0.196169 0.017267 -0.072575 0.095754 0.239207 0.121538 0.320307 -0.217967 -0.318288 0.427479 0.009359 -0.115999 0.276923 0.092102 -0.233375 0.324240 -0.250288 -0.243126 
hier 0.124183 -0.250905 0.208058 -0.080482 -0.001411 -0.080331 0.162788 -0.050515 -0.188221 -0.150470 0.148954 0.181555 -0.346947 -0.023349 -0.027929 0.267966 0.060049 0.105354 0.039165 0.111747 -0.095208 0.068544 0.261534 0.062362 -0.288156 -0.086199 -0.351135 0.058675 0.108811 0.130175 0.047892 0.178023 -0.343964 0.046068 0.061167 0.178265 0.244595 0.073510 0.335805 -0.231906 -0.307371 0.390641 0.064122 -0.132677 0.255216 0.065629 -0.210977 0.289510 -0.245125 -0.180504 
europäische 0.174415 -0.255202 0.208494 -0.068100 0.030741 -0.080189 0.165109 -0.113552 -0.250654 -0.166255 0.128558 0.162967 -0.340735 0.019750 -0.079290 0.227034 0.039195 0.099644 0.080461 0.107155 -0.069960 0.086106 0.266197 0.094928 -0.305634 -0.110356 -0.359432 0.032883 0.141399 0.096743 0.037436 0.190734 -0.483111 0.046077 0.082096 0.251580 0.278821 0.047284 0.308251 -0.238881 -0.305559 0.388447 0.072517 -0.131179 0.289251 0.082835 -0.182346 0.249348 -0.274046 -0.144481 
) 0.200113 -0.197604 0.012551 -0.195320 0.220753 -0.043326 0.248657 0.009264 -0.234290 -0.095443 0.192215 0.311966 -0.506439 -0.269928 -0.009979 0.211766 -0.080639 -0.038300 -0.023272 -0.125676 -0.187642 -0.009695 0.192310 -0.090560 -0.238041 -0.253390 -0.342492 -0.094349 0.287120 0.181995 -0.056059 0.056289 -0.433539 0.078936 0.035141 0.064176 0.254400 0.233255 0.190521 -0.049885 -0.316386 0.543114 0.072622 -0.130587 0.177348 0.101400 -0.086268 0.232259 -0.193896 -0.135353 
( 0.139745 -0.135537 0.002943 -0.216085 0.260528 -0.104822 0.282603 0.107558 -0.187939 -0.056274 0.261417 0.376226 -0.537982 -0.437486 0.134326 0.288914 -0.108815 -0.128408 -0.053185 -0.177731 -0.296772 -0.060849 0.199070 -0.200893 -0.179381 -0.306829 -0.289313 -0.095152 0.314155 0.214237 -0.065802 0.038259 -0.258541 0.053962 -0.041375 -0.086678 0.257842 0.340101 0.203121 -0.008230 -0.345449 0.609930 0.007013 -0.101404 0.155913 0.102808 -0.070886 0.253929 -0.147241 -0.158307 
europa 0.048157 -0.235685 0.179304 -0.103701 -0.023110 -0.166759 0.168490 0.033085 -0.129959 -0.118846 0.228591 0.221385 -0.360370 -0.171728 0.133396 0.349553 0.038691 0.024298 0.020108 0.057377 -0.184598 0.058352 0.260017 -0.044135 -0.247282 -0.155821 -0.265351 0.090724 0.076150 0.176422 0.067999 0.146302 -0.151797 -0.014477 -0.053057 0.071674 0.211150 0.096198 0.343834 -0.215553 -0.313816 0.444699 0.029784 -0.108196 0.257864 0.082009 -0.223544 0.313201 -0.270510 -0.198735 
mitgliedstaaten 0.104926 -0.229767 0.166664 -0.095575 0.023848 -0.124433 0.161352 -0.023245 -0.181638 -0.121832 0.190946 0.222129 -0.354901 -0.120319 0.060936 0.315637 0.046125 0.039377 0.021251 0.043775 -0.163622 0.073339 0.262026 0.004156 -0.266081 -0.142781 -0.300191 0.062865 0.087502 0.122504 0.046802 0.163798 -0.259736 0.008876 -0.017013 0.120285 0.255305 0.090583 0.309072 -0.212387 -0.321894 0.421698 0.053603 -0.123538 0.246552 0.087172 -0.187315 0.313496 -0.278596 -0.210511 
frage 0.090658 -0.251400 0.183834 -0.092051 0.015968 -0.139501 0.149122 -0.050459 -0.183263 -0.147753 0.179372 0.202363 -0.326547 -0.074131 0.031041 0.294016 0.056206 0.085635 0.033870 0.058029 -0.154061 0.084471 0.259537 0.034382 -0.278963 -0.117839 -0.293735 0.102021 0.086957 0.116693 0.054547 0.169119 -0.291260 0.038968 0.017158 0.133071 0.235536 0.064969 0.325669 -0.217457 -0.309839 0.418922 0.044494 -0.115728 0.248145 0.067829 -0.223721 0.277446 -0.279558 -0.190667 
damit 0.127881 -0.274099 0.209289 -0.092343 -0.016696 -0.115849 0.174674 -0.043586 -0.155611 -0.159361 0.193771 0.201823 -0.366530 -0.093304 0.036122 0.303910 0.042584 0.059847 0.052538 0.062534 -0.125353 0.090996 0.245902 0.026794 -0.303278 -0.106454 -0.305277 0.088770 0.093405 0.143811 0.061857 0.138696 -0.271279 0.008581 0.026381 0.173816 0.219971 0.058967 0.359639 -0.235626 -0.323754 0.434829 0.045358 -0.139240 0.272620 0.092433 -0.228052 0.275584 -0.294093 -0.182993 
ihre 0.133316 -0.239077 0.199989 -0.081617 -0.016075 -0.110756 0.162349 -0.041556 -0.212090 -0.154982 0.163405 0.165974 -0.329904 -0.024806 -0.015135 0.301988 0.060359 0.068727 0.042231 0.072316 -0.127908 0.072865 0.248848 0.047390 -0.290681 -0.129195 -0.360187 0.053502 0.119664 0.124181 0.041391 0.175958 -0.362653 0.013894 0.039607 0.153567 0.260707 0.056748 0.343952 -0.244321 -0.312580 0.424980 0.044222 -0.150815 0.246512 0.085073 -0.223854 0.298416 -0.279976 -0.189536 
mehr 0.099253 -0.248695 0.155643 -0.110034 -0.044750 -0.156124 0.148403 0.003935 -0.134892 -0.147679 0.219990 0.205563 -0.375528 -0.159722 0.116889 0.335902 0.012919 0.030454 0.031723 0.037090 -0.187356 0.083347 0.259781 -0.011642 -0.228663 -0.128070 -0.273721 0.099610 0.091924 0.184408 0.094133 0.140081 -0.176705 0.004371 -0.061854 0.096629 0.244934 0.072938 0.323506 -0.253372 -0.357427 0.421439 -0.010301 -0.118934 0.263912 0.107461 -0.213665 0.327257 -0.279357 -0.206195 
wurde 0.104633 -0.249435 0.193835 -0.107155 -0.015686 -0.126513 0.173615 -0.028770 -0.188508 -0.121279 0.196525 0.183846 -0.336208 -0.089100 0.047088 0.288383 0.036324 0.056674 0.051051 0.071566 -0.158720 0.086327 0.263486 0.005478 -0.275054 -0.127978 -0.297456 0.079870 0.111257 0.130752 0.048095 0.175896 -0.276550 0.005306 -0.001295 0.123409 0.251177 0.080407 0.339687 -0.225250 -0.338679 0.413049 0.050581 -0.128977 0.244221 0.097906 -0.217291 0.305636 -0.256692 -0.188416 
alle 0.145218 -0.256517 0.192025 -0.068718 -0.003241 -0.080499 0.125199 -0.098360 -0.216304 -0.187836 0.166755 0.166891 -0.360314 0.010319 -0.035385 0.237652 0.051696 0.086476 0.059059 0.100414 -0.098321 0.060305 0.260857 0.067029 -0.293711 -0.133177 -0.361587 0.069547 0.105629 0.133191 0.044471 0.189188 -0.407648 0.043599 0.061788 0.209586 0.272971 0.050143 0.308892 -0.249673 -0.319712 0.386490 0.070776 -0.118936 0.274096 0.090307 -0.209711 0.278205 -0.272574 -0.179122 
denn 0.134319 -0.262968 0.184143 -0.086644 0.001467 -0.130158 0.156979 -0.074343 -0.188164 -0.178904 0.157318 0.166616 -0.348059 0.017468 -0.026355 0.288539 0.058236 0.091778 0.048642 0.101711 -0.128448 0.082220 0.267757 0.064361 -0.278341 -0.082080 -0.311721 0.101334 0.091350 0.135325 0.084097 0.182255 -0.345364 0.050035 0.061104 0.189258 0.230310 0.048692 0.307168 -0.259300 -0.311266 0.407154 0.049121 -0.125596 0.247454 0.069675 -0.238320 0.286740 -0.252766 -0.166868 
meine 0.220565 -0.266263 0.222279 -0.015035 0.050931 0.006918 0.104886 -0.313700 -0.374839 -0.246046 -0.009178 0.091259 -0.329255 0.391972 -0.417866 0.145732 0.131501 0.245984 0.118526 0.166152 0.076680 0.132175 0.251237 0.315449 -0.362130 -0.002411 -0.479968 0.024857 0.153087 -0.008964 0.013292 0.322082 -0.896779 0.163471 0.333907 0.467224 0.315245 -0.048672 0.291965 -0.308249 -0.318151 0.297097 0.163542 -0.183906 0.284950 0.030441 -0.189910 0.242685 -0.300586 -0.094114 
eines 0.066197 -0.253735 0.180047 -0.101270 -0.012186 -0.168166 0.173685 -0.022287 -0.172167 -0.094364 0.203610 0.269747 -0.353563 -0.182650 0.099673 0.317453 0.051037 0.027626 0.033052 0.044666 -0.160288 0.101915 0.273053 -0.043687 -0.273466 -0.160381 -0.267900 0.103156 0.107907 0.159094 0.054752 0.155822 -0.192126 0.011771 -0.046694 0.087082 0.223748 0.098665 0.322360 -0.198027 -0.321274 0.454259 0.027449 -0.130012 0.255635 0.112738 -0.223489 0.305568 -0.275414 -0.213756 
heute 0.153182 -0.245884 0.215521 -0.082045 0.023542 -0.092035 0.155735 -0.126075 -0.256502 -0.172005 0.113829 0.173514 -0.365953 0.063150 -0.110632 0.248059 0.073210 0.107722 0.067851 0.113514 -0.089905 0.093838 0.265079 0.110131 -0.326993 -0.085643 -0.373617 0.059218 0.118259 0.069470 0.063829 0.209131 -0.474192 0.085355 0.115092 0.244208 0.240168 0.048168 0.319779 -0.252201 -0.312070 0.382577 0.067926 -0.149295 0.278259 0.075044 -0.214413 0.265419 -0.290434 -0.157030 
ihnen 0.233548 -0.301701 0.234467 -0.063592 0.004688 -0.046619 0.150779 -0.184714 -0.253857 -0.215361 0.076078 0.124836 -0.338267 0.135799 -0.181180 0.228574 0.073490 0.159779 0.111823 0.132874 -0.038466 0.118207 0.267379 0.174670 -0.325006 -0.063252 -0.406213 0.068140 0.148916 0.066693 0.050623 0.215188 -0.607173 0.089285 0.184149 0.319694 0.256061 -0.022212 0.313215 -0.297069 -0.321852 0.351260 0.111065 -0.195074 0.274451 0.055303 -0.215334 0.257804 -0.309947 -0.174702 
dann 0.137225 -0.260591 0.193849 -0.084845 0.006476 -0.069583 0.135017 -0.141977 -0.244708 -0.163034 0.122444 0.170474 -0.352922 0.020051 -0.070487 0.238598 0.062080 0.091085 0.037687 0.089440 -0.083088 0.102676 0.233311 0.117184 -0.287894 -0.077356 -0.331808 0.055344 0.110990 0.084516 0.046522 0.201108 -0.444116 0.042248 0.098648 0.243379 0.259890 0.041089 0.317000 -0.236591 -0.295640 0.376690 0.066755 -0.141081 0.257403 0.059878 -0.210931 0.279092 -0.307922 -0.175222 
sondern 0.073444 -0.242100 0.179220 -0.097845 -0.016374 -0.154778 0.154746 0.019914 -0.116418 -0.118167 0.215915 0.241031 -0.351964 -0.157581 0.161532 0.361424 0.033969 0.041454 0.006132 0.045467 -0.195324 0.072281 0.265197 -0.020622 -0.276988 -0.125801 -0.271371 0.106844 0.078927 0.157298 0.079112 0.142307 -0.150400 0.014378 -0.056999 0.046187 0.217156 0.102798 0.326978 -0.196413 -0.328075 0.425596 0.018740 -0.087678 0.248553 0.115547 -0.196429 0.309936 -0.235376 -0.216030 
0 0.115162 -0.281840 0.136496 -0.102459 0.046328 -0.106534 0.150692 -0.092852 -0.245759 -0.119665 0.171124 0.201060 -0.351556 -0.062018 -0.022555 0.239747 -0.021140 0.077514 0.031538 0.007681 -0.120575 0.053315 0.218833 0.023290 -0.274141 -0.164127 -0.353243 -0.010931 0.168169 0.126420 0.012468 0.205287 -0.456184 0.048541 0.049637 0.155456 0.264252 0.065124 0.275659 -0.190460 -0.314392 0.407511 0.062722 -0.136347 0.242928 0.120737 -0.176958 0.320032 -0.290962 -0.168775 
mich 0.187187 -0.250544 0.226773 -0.085682 0.021700 -0.060855 0.140390 -0.172637 -0.260422 -0.206805 0.072268 0.104958 -0.321373 0.165870 -0.218138 0.231807 0.078333 0.162148 0.096948 0.120186 -0.039650 0.101631 0.256703 0.151347 -0.325231 -0.045043 -0.383783 0.072969 0.128512 0.057927 0.047955 0.217109 -0.562692 0.106192 0.192766 0.305212 0.268732 -0.007822 0.288778 -0.290542 -0.315465 0.346032 0.116418 -0.187970 0.287247 0.050841 -0.236225 0.271582 -0.268144 -0.127651 
da 0.078828 -0.215050 0.169655 -0.069949 -0.018010 -0.145132 0.151935 0.009371 -0.162658 -0.111952 0.195251 0.202854 -0.362475 -0.122208 0.102436 0.304381 0.034065 0.043049 0.012836 0.062963 -0.196543 0.056730 0.262024 -0.014864 -0.221485 -0.132087 -0.300638 0.070164 0.085004 0.170076 0.051689 0.161018 -0.195780 0.017814 -0.024272 0.080056 0.232160 0.111808 0.321810 -0.199811 -0.326683 0.425654 0.024842 -0.123331 0.229501 0.118387 -0.219412 0.325991 -0.262827 -0.208174 
jedoch 0.148436 -0.274630 0.210139 -0.081982 0.002331 -0.108155 0.140342 -0.067677 -0.180007 -0.149891 0.155131 0.192023 -0.344661 -0.027696 0.017817 0.297004 0.057543 0.079353 0.053195 0.093873 -0.143610 0.068043 0.267535 0.052225 -0.276541 -0.105976 -0.337043 0.089651 0.126416 0.132458 0.080910 0.167810 -0.328029 0.028024 0.032242 0.198377 0.253747 0.065700 0.309374 -0.248065 -0.302659 0.388430 0.046068 -0.136562 0.259250 0.094998 -0.209658 0.301013 -0.272225 -0.202961 
er 0.158909 -0.267977 0.194436 -0.082303 0.036184 -0.064405 0.159654 -0.136081 -0.238237 -0.152210 0.104955 0.136781 -0.329393 0.067876 -0.144845 0.238478 0.073991 0.131684 0.074631 0.102591 -0.068973 0.097665 0.245428 0.110007 -0.311154 -0.104687 -0.377107 0.065567 0.121929 0.093513 0.054931 0.222739 -0.495200 0.072934 0.123763 0.262825 0.262073 0.034433 0.315719 -0.244452 -0.298533 0.394836 0.089518 -0.139089 0.283326 0.065447 -0.210610 0.281734 -0.291586 -0.156320 
gibt 0.064236 -0.220263 0.178267 -0.093626 -0.032210 -0.190715 0.149708 0.053792 -0.133821 -0.116957 0.262345 0.262683 -0.375578 -0.188023 0.179910 0.371390 0.015997 -0.001415 -0.000410 0.069099 -0.202547 0.059784 0.271711 -0.077873 -0.248267 -0.164714 -0.255974 0.093935 0.084241 0.192429 0.098280 0.147157 -0.107444 -0.016837 -0.078757 0.014697 0.194983 0.132152 0.354853 -0.222894 -0.325138 0.457812 -0.001288 -0.110779 0.232868 0.136310 -0.232259 0.328935 -0.244945 -0.243019 
herrn 0.210820 -0.277564 0.198341 -0.101772 0.062335 -0.023050 0.151816 -0.185347 -0.300256 -0.178339 0.068639 0.136625 -0.353236 0.145669 -0.253099 0.201968 0.033092 0.133762 0.102440 0.093828 -0.030239 0.090078 0.247015 0.168383 -0.318411 -0.043421 -0.423341 0.025254 0.171099 0.065226 0.027957 0.256187 -0.676025 0.091158 0.187452 0.334836 0.280748 0.004208 0.291295 -0.249255 -0.333970 0.380943 0.104947 -0.196530 0.279207 0.043057 -0.207193 0.254760 -0.272268 -0.115270 
zwischen 0.032766 -0.219158 0.177602 -0.079467 -0.022747 -0.183614 0.170465 0.050657 -0.086825 -0.111632 0.248453 0.272868 -0.384481 -0.249139 0.212935 0.406459 0.034901 0.001420 0.013927 0.028111 -0.237958 0.061825 0.282352 -0.103444 -0.227680 -0.191882 -0.252086 0.119457 0.062435 0.176461 0.068749 0.108075 -0.051120 -0.039355 -0.119082 -0.034485 0.208467 0.121858 0.331973 -0.231491 -0.320919 0.465680 -0.009157 -0.112136 0.240342 0.124138 -0.203373 0.346244 -0.249220 -0.259855 
unsere 0.130947 -0.262556 0.185389 -0.086117 0.021452 -0.120206 0.137487 -0.073805 -0.201134 -0.172832 0.132982 0.179799 -0.344150 -0.034443 -0.016417 0.281388 0.045342 0.070805 0.030804 0.090930 -0.104733 0.105273 0.244774 0.058145 -0.298069 -0.114120 -0.333987 0.072464 0.123463 0.132612 0.043105 0.203105 -0.368648 0.026751 0.052372 0.184750 0.233578 0.064171 0.311575 -0.241228 -0.325096 0.406270 0.047249 -0.137004 0.263453 0.075144 -0.198780 0.282767 -0.270880 -0.175441 
sowie 0.128415 -0.276896 0.196349 -0.098549 0.006398 -0.126923 0.161093 -0.055108 -0.197589 -0.147311 0.174687 0.221320 -0.372918 -0.104992 0.045250 0.293113 0.041011 0.050414 0.035393 0.047469 -0.149076 0.073841 0.237054 -0.003659 -0.295833 -0.134335 -0.310641 0.072595 0.120447 0.130882 0.038104 0.154480 -0.320112 0.024244 0.009937 0.133399 0.242551 0.076818 0.325673 -0.241481 -0.339586 0.436168 0.050132 -0.128196 0.255179 0.109311 -0.199510 0.307716 -0.289879 -0.174356 
kollegen 0.189428 -0.252083 0.248600 -0.059769 0.021857 -0.076498 0.170696 -0.170890 -0.305791 -0.182540 0.086852 0.178868 -0.335490 0.167142 -0.240595 0.242467 0.084983 0.146544 0.071145 0.128608 -0.050655 0.100320 0.259880 0.147705 -0.298056 -0.073015 -0.376837 0.027046 0.143877 0.092439 0.040707 0.237920 -0.636208 0.101463 0.220668 0.257166 0.271053 0.016588 0.331486 -0.261174 -0.380917 0.354306 0.115362 -0.184512 0.295090 0.034351 -0.225107 0.268627 -0.261720 -0.119397 
entwicklung 0.053939 -0.234509 0.154081 -0.131792 -0.008425 -0.156249 0.200449 0.026439 -0.111343 -0.090455 0.250630 0.259972 -0.412564 -0.268393 0.197737 0.337812 0.025785 -0.016439 -0.011118 -0.000029 -0.223431 0.080554 0.241933 -0.089153 -0.258173 -0.206430 -0.221568 0.096387 0.086561 0.191993 0.057631 0.114378 -0.113185 0.013950 -0.083600 0.021657 0.239257 0.121730 0.324118 -0.177211 -0.343303 0.479559 0.003602 -0.095418 0.237121 0.111718 -0.205069 0.353303 -0.254210 -0.230494 
am 0.160580 -0.253946 0.207321 -0.088768 0.014636 -0.098927 0.161843 -0.081427 -0.213232 -0.152845 0.153607 0.192292 -0.357575 -0.004295 -0.032246 0.260093 0.030921 0.099628 0.059277 0.110503 -0.111155 0.099561 0.247345 0.098977 -0.314044 -0.093676 -0.371992 0.051885 0.130335 0.106716 0.040856 0.173178 -0.381566 0.023018 0.061795 0.186456 0.259039 0.031068 0.336426 -0.225995 -0.308938 0.402190 0.048489 -0.128331 0.258973 0.091935 -0.193043 0.272313 -0.282195 -0.174896 
rat 0.153801 -0.260366 0.185384 -0.089310 0.019416 -0.080521 0.140774 -0.114018 -0.219277 -0.164073 0.145417 0.162622 -0.343843 -0.001379 -0.077388 0.248154 0.055107 0.113247 0.063836 0.099674 -0.094285 0.113042 0.239024 0.093538 -0.295893 -0.091341 -0.337114 0.067420 0.094453 0.088310 0.057934 0.211261 -0.441963 0.048658 0.102934 0.230830 0.227748 0.030685 0.319303 -0.255416 -0.319470 0.388900 0.056371 -0.166520 0.271390 0.075553 -0.204494 0.285579 -0.282071 -0.196790 
diesen 0.139918 -0.259000 0.204866 -0.086811 -0.003261 -0.093949 0.166793 -0.066804 -0.213650 -0.151930 0.152062 0.206437 -0.355184 -0.044463 -0.000415 0.256257 0.049711 0.065304 0.054278 0.060550 -0.113528 0.067812 0.275733 0.048196 -0.303892 -0.112195 -0.325512 0.091180 0.116944 0.114844 0.061389 0.176513 -0.360247 0.047942 0.038973 0.175617 0.238172 0.052378 0.324987 -0.239119 -0.327236 0.396336 0.061693 -0.152260 0.255620 0.079957 -0.226284 0.279680 -0.262415 -0.181067 
weil 0.080126 -0.262083 0.183048 -0.074925 -0.031871 -0.136921 0.158850 -0.008263 -0.162302 -0.137187 0.179971 0.231159 -0.358290 -0.104490 0.097381 0.327371 0.033140 0.045240 0.048435 0.074237 -0.186260 0.066247 0.267515 0.009162 -0.259877 -0.130403 -0.310770 0.092637 0.094112 0.134737 0.062648 0.148735 -0.245274 0.015925 -0.012246 0.101988 0.226381 0.065963 0.340719 -0.240249 -0.334413 0.418646 0.013610 -0.116833 0.231104 0.075198 -0.235037 0.295014 -0.274439 -0.179984 
doch 0.093218 -0.247433 0.207624 -0.084317 -0.024631 -0.129529 0.163455 -0.006832 -0.166448 -0.141352 0.174977 0.220312 -0.349124 -0.110134 0.081334 0.307621 0.053488 0.051963 0.036993 0.075220 -0.144165 0.068549 0.243828 -0.005283 -0.267043 -0.118229 -0.312291 0.098974 0.101394 0.128802 0.062318 0.160958 -0.207391 -0.009541 -0.013101 0.092331 0.225507 0.076384 0.360165 -0.236871 -0.318646 0.407234 0.017935 -0.142243 0.243760 0.106053 -0.232314 0.291840 -0.261484 -0.206304 
habe 0.222623 -0.265412 0.238642 -0.061524 0.028374 -0.062566 0.157875 -0.151542 -0.275213 -0.195819 0.055695 0.158606 -0.339129 0.171770 -0.222702 0.219569 0.066733 0.152122 0.081433 0.134472 -0.051252 0.082103 0.255580 0.178820 -0.331325 -0.048973 -0.404034 0.038936 0.135683 0.049292 0.075921 0.262243 -0.597466 0.103648 0.179457 0.297974 0.243850 -0.017639 0.304443 -0.260825 -0.346071 0.329404 0.113279 -0.195262 0.264715 0.040323 -0.216364 0.241858 -0.290008 -0.131114 
mir 0.177522 -0.273157 0.198284 -0.087058 0.017092 -0.055915 0.148746 -0.169335 -0.261836 -0.167749 0.055418 0.122422 -0.322937 0.153029 -0.201646 0.212757 0.066103 0.157104 0.104913 0.128686 -0.032224 0.110513 0.255123 0.162922 -0.332229 -0.051217 -0.393011 0.061227 0.126855 0.060681 0.033536 0.232014 -0.585970 0.100226 0.177169 0.334028 0.245449 -0.020013 0.305384 -0.251008 -0.331046 0.348935 0.114066 -0.168344 0.253155 0.055023 -0.210046 0.251389 -0.276731 -0.132241 
geht 0.100390 -0.268066 0.199819 -0.109740 -0.018065 -0.114288 0.156756 -0.068041 -0.184603 -0.153076 0.155971 0.182155 -0.338335 -0.041366 0.010212 0.265800 0.052465 0.069237 0.027564 0.071474 -0.134739 0.078605 0.261978 0.049915 -0.313087 -0.128816 -0.321672 0.084098 0.098249 0.115019 0.062300 0.177916 -0.359196 0.019773 0.027468 0.176005 0.235680 0.076140 0.312443 -0.240244 -0.320890 0.423613 0.071335 -0.149716 0.260972 0.086254 -0.215083 0.298911 -0.276156 -0.181455 
darauf 0.127355 -0.276200 0.214436 -0.094338 -0.004254 -0.114939 0.152248 -0.095620 -0.182629 -0.178645 0.144107 0.163186 -0.346788 0.016512 -0.029179 0.270773 0.067752 0.101188 0.055163 0.123050 -0.083903 0.102821 0.249785 0.081484 -0.289187 -0.095796 -0.370205 0.066841 0.104906 0.120047 0.070161 0.172099 -0.381101 0.041183 0.057193 0.222028 0.230624 0.052922 0.310902 -0.267801 -0.333895 0.385531 0.073900 -0.146174 0.274174 0.086443 -0.225461 0.246399 -0.274246 -0.159753 
dafür 0.141194 -0.268937 0.210839 -0.091740 0.008960 -0.111677 0.151224 -0.109464 -0.206293 -0.167783 0.135357 0.169076 -0.342551 -0.018223 -0.039168 0.247977 0.069669 0.088352 0.059306 0.072881 -0.112596 0.086946 0.251341 0.101451 -0.304905 -0.099730 -0.356766 0.094715 0.104701 0.090797 0.076812 0.186242 -0.402314 0.037231 0.083054 0.217010 0.228464 0.029236 0.307592 -0.231513 -0.320220 0.408487 0.055617 -0.125546 0.276114 0.062709 -0.204318 0.268509 -0.270265 -0.191366 
keine 0.123463 -0.260982 0.194517 -0.087381 0.002962 -0.088735 0.162889 -0.080785 -0.209976 -0.151077 0.138372 0.162651 -0.363774 -0.007922 -0.038966 0.245087 0.056852 0.093798 0.047027 0.096154 -0.110772 0.085092 0.268917 0.080269 -0.298562 -0.107968 -0.341556 0.058617 0.130727 0.107947 0.034815 0.196087 -0.377934 0.018721 0.050690 0.215307 0.244194 0.046229 0.328355 -0.210020 -0.305358 0.387954 0.072270 -0.150320 0.260974 0.093734 -0.188050 0.291482 -0.295456 -0.183046 
bereits 0.127039 -0.239874 0.197923 -0.095462 -0.016313 -0.110647 0.151418 -0.078558 -0.217799 -0.157192 0.148344 0.170136 -0.353315 -0.026187 -0.027239 0.278599 0.045873 0.085573 0.062081 0.078157 -0.128021 0.081523 0.269877 0.072520 -0.286896 -0.108547 -0.328870 0.082615 0.105523 0.103079 0.059611 0.188234 -0.345181 0.039135 0.052714 0.177751 0.246253 0.056782 0.305981 -0.233001 -0.321818 0.393846 0.065444 -0.116702 0.254376 0.081633 -0.220335 0.277353 -0.263310 -0.193366 
unter 0.113605 -0.244102 0.205701 -0.092803 -0.003060 -0.143473 0.136867 -0.039734 -0.176435 -0.115135 0.182468 0.235403 -0.362250 -0.125016 0.086588 0.326431 0.051702 0.051415 0.031730 0.055152 -0.156507 0.076948 0.264383 0.006357 -0.277746 -0.139594 -0.296848 0.070782 0.115669 0.159138 0.060372 0.164713 -0.244736 0.006221 -0.015851 0.107310 0.241929 0.079283 0.326413 -0.214983 -0.327892 0.436263 0.014690 -0.137762 0.266431 0.126599 -0.235576 0.297027 -0.280569 -0.187554 
regionen 0.058660 -0.219605 0.166537 -0.088102 -0.000218 -0.172565 0.178371 0.057875 -0.118692 -0.110898 0.247319 0.242879 -0.358715 -0.224348 0.199533 0.371328 0.025643 0.000760 -0.004083 0.026864 -0.220864 0.066320 0.245377 -0.075408 -0.242835 -0.163963 -0.255787 0.116478 0.068391 0.160091 0.078840 0.116339 -0.095739 -0.011236 -0.093388 0.009786 0.254355 0.135659 0.330277 -0.180994 -0.333581 0.451666 0.003628 -0.085185 0.233550 0.100997 -0.182097 0.347389 -0.266577 -0.217221 
dazu 0.112596 -0.233033 0.203482 -0.083972 0.000503 -0.138087 0.163534 -0.047914 -0.184313 -0.136864 0.176710 0.187776 -0.334061 -0.074518 0.052714 0.293130 0.045634 0.056648 0.054692 0.086073 -0.104953 0.091933 0.242703 0.027688 -0.280673 -0.100869 -0.299261 0.098831 0.093250 0.115305 0.053271 0.162169 -0.307666 0.028459 0.037827 0.141863 0.232237 0.055193 0.339097 -0.256464 -0.338421 0.400965 0.031502 -0.119576 0.243396 0.094168 -0.211174 0.265719 -0.261321 -0.177645 
deshalb 0.163000 -0.253873 0.209548 -0.075896 0.010801 -0.097097 0.137348 -0.097635 -0.203247 -0.134368 0.133420 0.168866 -0.343239 0.005362 -0.062680 0.265667 0.071662 0.086777 0.047771 0.091504 -0.085974 0.106603 0.249298 0.069290 -0.291896 -0.105291 -0.317878 0.069020 0.110912 0.109890 0.042393 0.202632 -0.410211 0.044354 0.090917 0.223961 0.245456 0.029601 0.320024 -0.233922 -0.310200 0.393261 0.062949 -0.151201 0.252089 0.057106 -0.203815 0.287214 -0.265548 -0.189080 
ihrer 0.100576 -0.262288 0.199051 -0.105396 -0.012696 -0.134526 0.155639 -0.055078 -0.198544 -0.113579 0.160542 0.190878 -0.337268 -0.048446 0.026487 0.296473 0.036840 0.043656 0.010054 0.058077 -0.125565 0.084836 0.256315 0.021624 -0.247224 -0.137958 -0.318088 0.061717 0.087455 0.160291 0.051204 0.169625 -0.300614 0.017210 0.008649 0.151297 0.236273 0.079514 0.305837 -0.242809 -0.345260 0.401185 0.030128 -0.146867 0.251104 0.093600 -0.186513 0.302055 -0.294028 -0.198336 
anderen 0.114373 -0.241562 0.201268 -0.091125 -0.027359 -0.127697 0.163425 -0.070446 -0.185645 -0.155741 0.165800 0.205185 -0.340474 -0.052882 0.036244 0.313583 0.068798 0.078579 0.062090 0.075654 -0.115387 0.068870 0.257541 0.032396 -0.290729 -0.090213 -0.354103 0.094709 0.117963 0.115459 0.047158 0.164863 -0.318363 0.024054 0.047163 0.183470 0.253816 0.057249 0.324865 -0.256571 -0.320038 0.416974 0.039526 -0.140545 0.264089 0.068966 -0.210749 0.274464 -0.278625 -0.188844 
sagen 0.125377 -0.237748 0.194429 -0.076848 0.003574 -0.084437 0.131071 -0.074646 -0.215226 -0.121637 0.131979 0.155653 -0.336331 -0.007211 -0.021329 0.298290 0.065366 0.110860 0.020506 0.095268 -0.095376 0.083731 0.246945 0.058110 -0.260690 -0.080441 -0.333898 0.077070 0.119092 0.103314 0.053133 0.196405 -0.341824 0.068079 0.047093 0.150307 0.227461 0.059940 0.302916 -0.220647 -0.338356 0.388150 0.061863 -0.138235 0.244592 0.086676 -0.216615 0.289052 -0.251865 -0.172289 
unserer 0.117656 -0.250863 0.191700 -0.088364 0.018584 -0.134998 0.184455 -0.059510 -0.218065 -0.156384 0.155119 0.187889 -0.355456 -0.072645 0.010785 0.280529 0.032418 0.069500 0.024929 0.080245 -0.135218 0.058181 0.231596 0.036877 -0.289386 -0.109683 -0.317435 0.062136 0.111722 0.134048 0.052762 0.192607 -0.333069 0.026892 0.044586 0.162484 0.224279 0.086599 0.294262 -0.203154 -0.326412 0.408229 0.044704 -0.130744 0.268221 0.099160 -0.206579 0.305442 -0.285940 -0.174604 
präsidentin 0.192566 -0.280766 0.212415 -0.056498 0.024571 -0.034413 0.140041 -0.235534 -0.321660 -0.202061 0.029416 0.109718 -0.322953 0.250632 -0.331856 0.176478 0.102355 0.203486 0.105277 0.146614 0.026381 0.122125 0.246578 0.215722 -0.336648 -0.009947 -0.406660 0.040303 0.135699 0.024520 0.036526 0.268563 -0.733998 0.129990 0.284840 0.366602 0.239436 -0.059068 0.298677 -0.280992 -0.314034 0.300353 0.123259 -0.212718 0.289233 0.044345 -0.218406 0.220269 -0.254194 -0.106596 
maßnahmen 0.131248 -0.278908 0.200048 -0.105134 0.006596 -0.127981 0.175423 -0.099868 -0.210041 -0.173839 0.173064 0.212403 -0.364525 -0.050332 -0.003989 0.279816 0.030548 0.082461 0.053777 0.076821 -0.125991 0.101825 0.259151 0.059539 -0.319489 -0.121854 -0.345089 0.091256 0.128615 0.103196 0.064335 0.177004 -0.360509 0.051309 0.043808 0.203139 0.259186 0.063326 0.322612 -0.237814 -0.318854 0.398096 0.062508 -0.141405 0.265063 0.078504 -0.220740 0.305330 -0.273124 -0.199148 
sollten 0.087700 -0.244874 0.194292 -0.100031 -0.008008 -0.132190 0.157295 -0.024170 -0.177126 -0.171579 0.194419 0.209791 -0.366722 -0.082046 0.065153 0.328897 0.044827 0.043055 0.033442 0.067384 -0.151070 0.068292 0.274362 0.015098 -0.268390 -0.124376 -0.299525 0.094888 0.105688 0.139427 0.077722 0.160816 -0.243493 0.008105 0.005585 0.122973 0.211468 0.073124 0.333277 -0.231671 -0.310588 0.424751 0.027327 -0.114904 0.242621 0.095004 -0.204665 0.281097 -0.255610 -0.206943 
denen 0.120304 -0.250164 0.188280 -0.101094 -0.014658 -0.117960 0.163292 -0.062666 -0.224844 -0.149615 0.186563 0.190331 -0.356093 -0.043067 -0.017146 0.290254 0.036823 0.074643 0.047830 0.084614 -0.130701 0.080957 0.282550 0.072564 -0.277280 -0.126852 -0.325901 0.081091 0.079176 0.131628 0.063984 0.171285 -0.357793 0.049370 0.039906 0.175718 0.237953 0.054968 0.339237 -0.265563 -0.342433 0.436892 0.049872 -0.117059 0.248916 0.074997 -0.216763 0.293109 -0.278246 -0.188147 
ganz 0.140904 -0.243799 0.223111 -0.081466 0.013724 -0.085065 0.157799 -0.086950 -0.200226 -0.183346 0.120284 0.175434 -0.336361 0.042090 -0.059866 0.271804 0.037099 0.104342 0.055430 0.103048 -0.108756 0.101137 0.265229 0.088596 -0.304159 -0.078272 -0.342766 0.089715 0.130099 0.104575 0.043734 0.204669 -0.387514 0.065889 0.086559 0.220243 0.253374 0.038330 0.315648 -0.246222 -0.329785 0.387785 0.075277 -0.162223 0.263742 0.057729 -0.218244 0.265796 -0.294986 -0.166450 
sollte 0.114032 -0.251631 0.198218 -0.079139 -0.027492 -0.135021 0.153385 -0.038608 -0.187589 -0.129383 0.175136 0.207962 -0.325959 -0.105850 0.036301 0.294111 0.062921 0.053658 0.035850 0.058874 -0.146862 0.066250 0.256051 0.036096 -0.281968 -0.123569 -0.303807 0.090574 0.093320 0.135246 0.078700 0.145121 -0.289829 0.018049 0.002581 0.138709 0.247798 0.061018 0.319127 -0.225857 -0.316323 0.388006 0.032814 -0.121627 0.238236 0.112669 -0.206548 0.305701 -0.253597 -0.188597 
immer 0.073774 -0.227397 0.189820 -0.077592 -0.006625 -0.144483 0.169337 0.008355 -0.147782 -0.129805 0.210862 0.218941 -0.364791 -0.147794 0.138994 0.344034 0.038061 0.036965 -0.004635 0.067897 -0.204329 0.063621 0.248237 -0.025857 -0.241280 -0.151595 -0.292495 0.086358 0.079266 0.141127 0.071616 0.139978 -0.156563 0.020364 -0.039837 0.060956 0.256675 0.109574 0.334756 -0.213245 -0.325062 0.466124 0.000615 -0.104935 0.251976 0.107114 -0.219177 0.317248 -0.256234 -0.206243 
gegen 0.078905 -0.267246 0.206162 -0.073908 -0.017919 -0.154592 0.166872 -0.037938 -0.162993 -0.132882 0.179623 0.228164 -0.357105 -0.126428 0.036860 0.344310 0.047156 0.045624 0.030778 0.082242 -0.187438 0.063543 0.259978 0.006171 -0.280201 -0.154676 -0.322639 0.078660 0.110166 0.122932 0.066019 0.193192 -0.258348 0.017292 -0.014181 0.136773 0.228990 0.084823 0.326009 -0.201945 -0.311073 0.454327 0.027176 -0.108410 0.249930 0.086294 -0.224511 0.318628 -0.252382 -0.201288 
vom 0.142916 -0.270370 0.198156 -0.076023 0.021463 -0.097397 0.154505 -0.124417 -0.222346 -0.155024 0.115418 0.200470 -0.341847 0.010403 -0.068944 0.260289 0.040927 0.093475 0.057969 0.067384 -0.064227 0.087797 0.240204 0.099698 -0.328093 -0.105348 -0.366744 0.082250 0.133549 0.095032 0.048373 0.204171 -0.431287 0.042332 0.095088 0.214012 0.249933 0.027873 0.325714 -0.235064 -0.320486 0.386409 0.054890 -0.164972 0.251339 0.056983 -0.223338 0.258484 -0.290896 -0.164711 
meiner 0.116476 -0.226768 0.203383 -0.081123 0.018551 -0.090763 0.136679 -0.080067 -0.194585 -0.162057 0.119546 0.147417 -0.349624 0.009762 -0.063130 0.253295 0.048529 0.106945 0.037879 0.091455 -0.093196 0.066481 0.240199 0.096656 -0.310089 -0.096880 -0.359794 0.072992 0.100408 0.097814 0.071445 0.197504 -0.394585 0.067883 0.076599 0.216644 0.249359 0.035979 0.293926 -0.246031 -0.314227 0.402530 0.069850 -0.144450 0.281712 0.089108 -0.188757 0.273870 -0.262275 -0.180898 
rahmen 0.107317 -0.251379 0.169200 -0.104952 0.004219 -0.101491 0.166606 -0.052766 -0.212288 -0.127941 0.202287 0.218248 -0.337296 -0.107939 0.049239 0.286716 0.048706 0.065725 0.038918 0.044484 -0.150540 0.089044 0.239103 0.014453 -0.280479 -0.122376 -0.302497 0.064880 0.110741 0.123026 0.055180 0.154150 -0.312538 0.033654 -0.004916 0.137766 0.278204 0.071880 0.307190 -0.205079 -0.336926 0.432459 0.043954 -0.126298 0.252582 0.101899 -0.167211 0.289469 -0.275563 -0.193415 
parlaments 0.156951 -0.249753 0.207502 -0.078568 0.013461 -0.095173 0.165532 -0.085639 -0.203270 -0.176204 0.150884 0.186723 -0.331486 -0.006358 -0.033060 0.264209 0.033529 0.073361 0.046001 0.088529 -0.102603 0.069970 0.232785 0.064253 -0.310377 -0.121707 -0.375525 0.065600 0.109593 0.089988 0.042199 0.161091 -0.394318 0.046006 0.069669 0.192465 0.250928 0.041095 0.305251 -0.252813 -0.332176 0.395420 0.046837 -0.157017 0.233298 0.056449 -0.209100 0.274780 -0.261678 -0.139767 
wollen 0.102787 -0.241657 0.207521 -0.068704 -0.018871 -0.119288 0.155257 -0.051073 -0.179332 -0.155270 0.161893 0.192430 -0.344456 -0.042168 0.025063 0.300844 0.068837 0.085927 0.025381 0.098127 -0.144827 0.097202 0.253115 0.053309 -0.292370 -0.110777 -0.302272 0.076560 0.084030 0.110002 0.069118 0.155939 -0.314383 0.002289 0.041910 0.177072 0.230554 0.058240 0.334374 -0.247719 -0.331705 0.401287 0.063424 -0.144290 0.252909 0.073995 -0.244987 0.303247 -0.289901 -0.204307 
war 0.136767 -0.258698 0.208142 -0.094662 0.003669 -0.093811 0.167335 -0.113205 -0.230020 -0.162800 0.123627 0.164249 -0.353448 0.018983 -0.067604 0.266569 0.054087 0.104472 0.027469 0.075845 -0.091997 0.095990 0.262202 0.091060 -0.298353 -0.097162 -0.345429 0.062175 0.105355 0.115738 0.053113 0.214648 -0.429950 0.063282 0.086611 0.225105 0.254411 0.043576 0.324662 -0.226334 -0.319685 0.393939 0.077154 -0.158414 0.265258 0.081202 -0.215024 0.285184 -0.271373 -0.170590 
jetzt 0.122798 -0.249501 0.196906 -0.088109 0.017631 -0.100266 0.138651 -0.087370 -0.210243 -0.162401 0.152358 0.191249 -0.359048 -0.003852 -0.057371 0.271597 0.046469 0.086367 0.047188 0.095180 -0.124110 0.080131 0.241694 0.048908 -0.266383 -0.093926 -0.357458 0.076820 0.120573 0.091744 0.067028 0.206714 -0.376105 0.034557 0.072624 0.203831 0.234902 0.043571 0.340176 -0.239506 -0.311242 0.368895 0.062864 -0.125530 0.269558 0.077759 -0.198515 0.277258 -0.268876 -0.175628 
bereich 0.120125 -0.277144 0.197518 -0.081180 -0.021477 -0.132511 0.172365 -0.049666 -0.164470 -0.148515 0.180580 0.231258 -0.354005 -0.115630 0.061353 0.315496 0.060164 0.048600 0.040795 0.059648 -0.150986 0.097551 0.230200 0.019916 -0.301138 -0.114498 -0.308639 0.091441 0.095482 0.146860 0.067842 0.167931 -0.274646 0.011164 -0.015453 0.158301 0.224624 0.073157 0.329942 -0.220149 -0.313941 0.441579 0.016979 -0.132534 0.235602 0.103709 -0.201094 0.283071 -0.259609 -0.199646 
insbesondere 0.099568 -0.275805 0.198350 -0.086468 0.007492 -0.138007 0.164684 -0.037777 -0.179409 -0.126941 0.181992 0.238390 -0.352749 -0.122965 0.064100 0.315999 0.028376 0.067384 0.017204 0.067443 -0.162975 0.082498 0.244350 -0.000505 -0.303679 -0.119855 -0.300362 0.097599 0.112815 0.143793 0.049354 0.180933 -0.253055 0.013495 -0.015931 0.117682 0.230210 0.082044 0.334528 -0.210908 -0.339487 0.422749 0.054982 -0.121655 0.268170 0.110108 -0.217064 0.277965 -0.283167 -0.194222 
also 0.090049 -0.219986 0.175524 -0.089123 -0.003569 -0.155598 0.167859 0.004861 -0.169944 -0.140890 0.199154 0.243764 -0.343476 -0.154466 0.125161 0.343430 0.020857 0.020110 0.006475 0.053755 -0.158596 0.049359 0.229667 -0.032300 -0.254158 -0.149575 -0.286058 0.103642 0.118862 0.161832 0.068395 0.143666 -0.187582 0.000078 -0.038724 0.074011 0.216665 0.098364 0.344060 -0.211978 -0.336724 0.441875 0.035179 -0.097979 0.244421 0.107192 -0.227340 0.311580 -0.253923 -0.211120 
wurden 0.162303 -0.286684 0.188259 -0.100894 0.005286 -0.098214 0.153162 -0.105822 -0.231372 -0.155339 0.142535 0.199102 -0.373980 -0.028792 -0.025388 0.264326 0.041187 0.083447 0.070366 0.061679 -0.115084 0.076648 0.258527 0.072757 -0.298594 -0.106418 -0.368369 0.052814 0.136660 0.106101 0.044169 0.211439 -0.421435 0.057337 0.078368 0.220791 0.243335 0.024577 0.319161 -0.219580 -0.321956 0.399369 0.062751 -0.135248 0.268863 0.106191 -0.207157 0.292151 -0.310676 -0.188418 
einige 0.143271 -0.241955 0.211205 -0.087156 0.008029 -0.090154 0.150442 -0.099987 -0.227500 -0.152290 0.151840 0.165922 -0.362509 0.014684 -0.040514 0.239451 0.055872 0.113638 0.041122 0.093670 -0.105909 0.086501 0.241362 0.102744 -0.291967 -0.102054 -0.355940 0.070798 0.122506 0.119664 0.047980 0.186245 -0.409396 0.051808 0.078742 0.213304 0.250169 0.036428 0.304942 -0.226629 -0.326115 0.397593 0.071160 -0.140011 0.247065 0.091284 -0.194236 0.256222 -0.267425 -0.158815 
allem 0.050891 -0.233108 0.192907 -0.074705 -0.005566 -0.184183 0.166784 0.034243 -0.143339 -0.107184 0.215191 0.251764 -0.360304 -0.203356 0.208462 0.361621 0.010538 0.004783 0.001202 0.027696 -0.195168 0.083076 0.265376 -0.088877 -0.231338 -0.144382 -0.259512 0.091036 0.088061 0.146457 0.051528 0.147238 -0.114733 -0.003488 -0.089974 0.030267 0.225565 0.113005 0.346062 -0.226747 -0.343212 0.451605 0.016700 -0.096083 0.253410 0.113855 -0.226471 0.317436 -0.279871 -0.216204 
vorschlag 0.106459 -0.239461 0.195153 -0.072121 -0.003422 -0.105278 0.151442 -0.052769 -0.194429 -0.134292 0.157285 0.194753 -0.355660 -0.044306 0.007231 0.256924 0.043543 0.061542 0.044711 0.064945 -0.115626 0.086677 0.232240 0.026838 -0.280053 -0.100671 -0.348996 0.050725 0.106047 0.089997 0.048865 0.174792 -0.367087 0.043026 0.045539 0.178943 0.264604 0.071355 0.313961 -0.206096 -0.323856 0.413498 0.070677 -0.127690 0.248538 0.101979 -0.206222 0.272256 -0.258322 -0.175929 
nun 0.106525 -0.222237 0.191287 -0.080140 0.002841 -0.134067 0.156301 -0.047639 -0.186459 -0.148066 0.147901 0.196799 -0.366114 -0.059474 0.016776 0.296399 0.017482 0.055703 0.033557 0.086665 -0.131522 0.079186 0.270133 0.034475 -0.272510 -0.111044 -0.318508 0.059282 0.100038 0.139087 0.053009 0.188444 -0.323021 0.037291 0.026358 0.146119 0.236321 0.073521 0.315560 -0.225316 -0.333856 0.424678 0.053641 -0.137642 0.252692 0.092259 -0.220227 0.290781 -0.279365 -0.173296 
ihren 0.103388 -0.253178 0.198678 -0.111007 -0.005084 -0.119945 0.157805 -0.064352 -0.173595 -0.155286 0.164234 0.188529 -0.337263 -0.086675 0.034885 0.351594 0.040146 0.071915 0.046071 0.061162 -0.124541 0.102961 0.248428 0.001992 -0.264770 -0.113243 -0.332076 0.095422 0.095408 0.156623 0.059676 0.157227 -0.260004 0.009509 0.007323 0.125303 0.244797 0.064623 0.345817 -0.271710 -0.349344 0.427138 0.044134 -0.132807 0.239586 0.074322 -0.216417 0.306297 -0.260086 -0.181981 
richtlinie 0.090083 -0.235129 0.161523 -0.097444 -0.003972 -0.114005 0.158966 0.033731 -0.152122 -0.130070 0.218042 0.242753 -0.366832 -0.180539 0.149426 0.314878 0.017157 0.032060 -0.013485 0.024971 -0.213382 0.062949 0.237043 -0.075663 -0.246349 -0.157932 -0.287564 0.086370 0.121491 0.142996 0.059856 0.132674 -0.187321 0.014422 -0.049988 0.038688 0.238394 0.139039 0.324019 -0.204224 -0.339174 0.456199 0.007316 -0.110239 0.227035 0.095606 -0.203608 0.325280 -0.270999 -0.213664 
bürger 0.088914 -0.231916 0.184414 -0.089861 -0.030126 -0.159471 0.164377 0.008938 -0.141380 -0.129027 0.224643 0.244350 -0.363769 -0.147723 0.138004 0.351302 0.058667 0.031313 0.003671 0.053124 -0.160240 0.059141 0.261714 -0.014837 -0.261381 -0.138351 -0.252496 0.117213 0.105202 0.153765 0.069831 0.128136 -0.147315 -0.004223 -0.057235 0.086298 0.214017 0.085096 0.344550 -0.206909 -0.315339 0.448390 0.028485 -0.105116 0.238202 0.114612 -0.228354 0.282512 -0.245082 -0.216314 
soll 0.106365 -0.248627 0.186408 -0.075780 0.019423 -0.111488 0.172315 -0.071716 -0.203997 -0.149316 0.162477 0.203350 -0.344306 -0.044712 -0.001322 0.281820 0.042661 0.058561 0.047868 0.080902 -0.137939 0.087605 0.252010 0.058257 -0.268009 -0.119666 -0.340195 0.054039 0.122363 0.108620 0.055754 0.173600 -0.360892 0.045287 0.031236 0.166421 0.255394 0.043533 0.305652 -0.218789 -0.325356 0.421098 0.062425 -0.130618 0.265902 0.079479 -0.210639 0.279459 -0.283786 -0.189986 
recht 0.086118 -0.261387 0.183977 -0.087819 -0.001792 -0.149902 0.141702 -0.015434 -0.155463 -0.123160 0.196181 0.250545 -0.350762 -0.127999 0.096108 0.338245 0.045934 0.045513 0.012512 0.091753 -0.152532 0.068515 0.271514 -0.032909 -0.265618 -0.121330 -0.293390 0.076988 0.093142 0.141766 0.065036 0.140752 -0.229543 0.014810 -0.026672 0.087137 0.238462 0.084582 0.332332 -0.232809 -0.332631 0.422361 0.004002 -0.109829 0.241177 0.107879 -0.216239 0.298239 -0.240258 -0.209367 
bin 0.160415 -0.270535 0.213901 -0.093658 -0.003399 -0.097396 0.137665 -0.120167 -0.239393 -0.165728 0.117778 0.139521 -0.320476 0.099752 -0.132751 0.270571 0.047033 0.125633 0.070015 0.118332 -0.055303 0.091636 0.266754 0.135763 -0.291744 -0.043487 -0.376882 0.062443 0.097831 0.061988 0.070592 0.228591 -0.513332 0.103979 0.130210 0.239491 0.257655 0.038841 0.308336 -0.269601 -0.317107 0.361444 0.065260 -0.156425 0.287763 0.055609 -0.203048 0.290008 -0.294864 -0.171786 
neue 0.109345 -0.260565 0.191325 -0.075290 -0.011323 -0.118338 0.162426 -0.032899 -0.147628 -0.127809 0.184799 0.222748 -0.382296 -0.096602 0.061823 0.316139 0.050433 0.038687 0.011158 0.071306 -0.157791 0.092747 0.252281 0.013460 -0.281621 -0.146595 -0.292811 0.065495 0.086613 0.118712 0.054032 0.159267 -0.249971 0.024853 -0.019211 0.104721 0.232758 0.078415 0.315037 -0.215708 -0.305924 0.401522 0.040172 -0.122136 0.230541 0.091487 -0.203254 0.307585 -0.263958 -0.193822 
natürlich 0.093182 -0.256372 0.174369 -0.080069 -0.003399 -0.128281 0.153080 -0.029302 -0.166456 -0.136782 0.203419 0.201164 -0.364134 -0.089853 0.060059 0.292798 0.066213 0.060885 0.034046 0.075281 -0.151339 0.060045 0.259088 0.034329 -0.284298 -0.115148 -0.299217 0.067778 0.107429 0.143730 0.052280 0.164610 -0.299197 0.005490 0.014769 0.124443 0.234275 0.080066 0.327325 -0.226393 -0.335448 0.420515 0.030256 -0.142220 0.252460 0.090070 -0.218912 0.299950 -0.257891 -0.179770 
fraktion 0.140386 -0.266256 0.188470 -0.078785 0.028538 -0.084796 0.168541 -0.108046 -0.226448 -0.176379 0.138022 0.176454 -0.364311 0.034647 -0.099060 0.256220 0.021590 0.109323 0.060959 0.087309 -0.083742 0.098893 0.254805 0.080593 -0.322337 -0.084265 -0.345355 0.063868 0.109145 0.091859 0.071114 0.203880 -0.459745 0.065344 0.104873 0.232206 0.255816 0.034411 0.318413 -0.262725 -0.331179 0.371256 0.062888 -0.142848 0.276968 0.054515 -0.220647 0.298385 -0.264727 -0.155393 
fragen 0.111123 -0.209508 0.178413 -0.088083 0.009668 -0.104180 0.177563 -0.058902 -0.198724 -0.147443 0.154585 0.178242 -0.336311 -0.060307 0.012474 0.308494 0.045568 0.065125 0.017395 0.106453 -0.143560 0.077001 0.247822 0.042120 -0.263279 -0.163552 -0.356104 0.078836 0.107095 0.110899 0.050292 0.177783 -0.323201 0.031979 0.032037 0.164737 0.255503 0.080983 0.316860 -0.217650 -0.311819 0.453614 0.043054 -0.109871 0.266987 0.069051 -0.214959 0.306924 -0.253203 -0.175233 
ob 0.111559 -0.202745 0.224091 -0.065395 -0.023891 -0.159528 0.180891 -0.025291 -0.172828 -0.175530 0.202741 0.183902 -0.347193 -0.098434 0.086345 0.354308 0.056487 0.057879 0.021335 0.080445 -0.169117 0.075316 0.267979 0.014002 -0.247132 -0.138180 -0.319054 0.088583 0.106300 0.144742 0.101972 0.170959 -0.229364 -0.002548 -0.005774 0.139696 0.243016 0.095492 0.340055 -0.213371 -0.321064 0.417609 0.002720 -0.113848 0.264796 0.069136 -0.199535 0.283978 -0.258844 -0.204656 
neuen 0.119850 -0.257658 0.186537 -0.093324 0.009348 -0.105568 0.161063 -0.054602 -0.181580 -0.144476 0.161667 0.208841 -0.368291 -0.068875 0.013778 0.302168 0.051953 0.078829 0.056629 0.072213 -0.143626 0.088291 0.256359 0.044239 -0.286490 -0.130012 -0.321204 0.082630 0.103676 0.115437 0.043323 0.191250 -0.318521 0.034591 0.015879 0.169968 0.234746 0.072726 0.318006 -0.218422 -0.320776 0.416446 0.058588 -0.134901 0.263933 0.105982 -0.216918 0.309588 -0.272489 -0.185579 
wäre 0.148972 -0.268959 0.210423 -0.089722 0.015290 -0.098111 0.166843 -0.108970 -0.212013 -0.176811 0.125462 0.171173 -0.340252 0.030293 -0.070561 0.259676 0.058442 0.103583 0.064094 0.107229 -0.100360 0.086460 0.264875 0.109307 -0.324194 -0.089656 -0.352824 0.062579 0.115761 0.088299 0.051378 0.187713 -0.422995 0.040448 0.083202 0.243066 0.227375 0.025649 0.320240 -0.255237 -0.308534 0.398380 0.041796 -0.155131 0.266932 0.066747 -0.193689 0.260203 -0.291634 -0.179896 
zeit 0.064287 -0.230006 0.192694 -0.091340 -0.001789 -0.167865 0.163328 0.059456 -0.137921 -0.119326 0.221423 0.250835 -0.359344 -0.200750 0.161319 0.388114 0.013073 0.014205 0.008837 0.042366 -0.212800 0.059870 0.262898 -0.045289 -0.236063 -0.145622 -0.252581 0.115943 0.084322 0.156424 0.077199 0.122897 -0.108693 0.009208 -0.072586 0.025721 0.226863 0.128804 0.348649 -0.203463 -0.315634 0.448071 0.013178 -0.093151 0.239498 0.107197 -0.235541 0.313324 -0.246216 -0.217671 
würde 0.123796 -0.256399 0.193752 -0.100791 0.018798 -0.109762 0.144111 -0.062973 -0.218616 -0.178600 0.125995 0.175278 -0.332257 -0.007391 -0.027848 0.259288 0.038073 0.092356 0.026073 0.110644 -0.131630 0.076528 0.255778 0.056918 -0.273292 -0.102453 -0.327042 0.074978 0.098366 0.111072 0.069303 0.181811 -0.360068 0.037373 0.037930 0.178643 0.250890 0.053528 0.326855 -0.232600 -0.332709 0.414622 0.063550 -0.132617 0.258784 0.064500 -0.206062 0.270483 -0.275151 -0.181170 
arbeit 0.122405 -0.240029 0.216905 -0.086093 -0.011049 -0.103252 0.143115 -0.078757 -0.207784 -0.165078 0.129085 0.171968 -0.333101 -0.000612 -0.005953 0.289101 0.040013 0.077272 0.036251 0.081058 -0.116177 0.069117 0.252044 0.038743 -0.290799 -0.107235 -0.338644 0.064919 0.116762 0.113029 0.068453 0.187270 -0.358380 0.047221 0.072329 0.179724 0.259063 0.053126 0.326164 -0.226046 -0.326594 0.396543 0.052394 -0.151087 0.262634 0.070358 -0.201838 0.288193 -0.257485 -0.167382 
daher 0.118399 -0.242493 0.187715 -0.111337 -0.001608 -0.097709 0.149492 -0.083614 -0.222484 -0.155072 0.169063 0.163849 -0.327021 -0.048515 -0.015351 0.269552 0.042876 0.060400 0.055612 0.078308 -0.123166 0.078819 0.261263 0.055097 -0.273660 -0.110728 -0.329004 0.062940 0.094948 0.126545 0.060720 0.176767 -0.370521 0.044009 0.033981 0.193396 0.238752 0.042999 0.304073 -0.214161 -0.325779 0.407581 0.055056 -0.130348 0.278228 0.073374 -0.193747 0.281209 -0.275904 -0.160811 
unternehmen 0.066337 -0.224553 0.176619 -0.086305 -0.039180 -0.161705 0.177104 0.029877 -0.123326 -0.129533 0.221443 0.251286 -0.361542 -0.225601 0.199606 0.360016 0.007816 0.000194 -0.001480 0.036689 -0.211770 0.030834 0.244978 -0.065758 -0.248171 -0.169141 -0.272393 0.093188 0.093344 0.148408 0.056624 0.116049 -0.105531 -0.017232 -0.096762 0.011743 0.229698 0.119340 0.321983 -0.221303 -0.344523 0.447322 0.019173 -0.099004 0.254907 0.102398 -0.213898 0.320518 -0.276498 -0.233142 
machen 0.137125 -0.248875 0.183786 -0.093156 0.011052 -0.086208 0.146246 -0.103094 -0.213578 -0.172663 0.129579 0.171786 -0.341152 0.032123 -0.064057 0.234665 0.048090 0.101145 0.042361 0.092358 -0.099271 0.082551 0.245199 0.114167 -0.302847 -0.103265 -0.340937 0.047006 0.128183 0.080595 0.033058 0.200268 -0.421558 0.058230 0.084203 0.223660 0.239994 0.028661 0.314704 -0.242077 -0.324989 0.376328 0.063587 -0.137717 0.266358 0.061539 -0.199480 0.278627 -0.278959 -0.163041 
kommissar 0.179655 -0.268491 0.200989 -0.035148 0.012968 -0.064938 0.148468 -0.154378 -0.244117 -0.196210 0.079081 0.178299 -0.330896 0.135148 -0.192855 0.226428 0.085899 0.130578 0.087294 0.135999 -0.041964 0.087391 0.227594 0.144046 -0.310958 -0.040993 -0.391025 0.063641 0.131186 0.079100 0.050192 0.209531 -0.538164 0.073571 0.179063 0.288002 0.258832 -0.002303 0.325089 -0.265862 -0.329022 0.352847 0.074412 -0.178331 0.236725 0.043723 -0.215446 0.249622 -0.253324 -0.137049 
000 0.089922 -0.216255 0.159169 -0.138819 0.019648 -0.125995 0.170438 0.058091 -0.146088 -0.094561 0.244862 0.259501 -0.392253 -0.229727 0.168725 0.313472 -0.028807 -0.027751 -0.016651 0.014404 -0.205029 0.037276 0.251589 -0.087511 -0.247620 -0.187150 -0.283944 0.058773 0.140559 0.178656 0.020584 0.139593 -0.171773 -0.020284 -0.073518 0.025625 0.243424 0.145032 0.296039 -0.202190 -0.351465 0.443187 -0.007117 -0.110955 0.181853 0.143340 -0.193561 0.322226 -0.257880 -0.210495 
seine 0.161992 -0.264397 0.203572 -0.094630 0.020890 -0.077876 0.149086 -0.096549 -0.228925 -0.152578 0.130517 0.172701 -0.353739 0.060623 -0.114169 0.243968 0.056528 0.115232 0.060874 0.112902 -0.104856 0.087943 0.248113 0.098758 -0.313163 -0.073711 -0.374434 0.061289 0.139463 0.105439 0.055136 0.194003 -0.462183 0.054729 0.106194 0.241255 0.239691 0.037476 0.327479 -0.247851 -0.345004 0.375200 0.057460 -0.147775 0.270745 0.070052 -0.221546 0.250968 -0.284022 -0.147761 
ohne 0.095308 -0.257281 0.205777 -0.087377 -0.011381 -0.155398 0.159749 -0.006874 -0.151838 -0.140914 0.210952 0.232695 -0.372551 -0.110884 0.084939 0.341442 0.048513 0.050434 0.018445 0.070610 -0.175566 0.062841 0.259981 -0.024547 -0.240510 -0.149748 -0.297042 0.080521 0.101560 0.142179 0.074568 0.159912 -0.195168 0.016562 -0.017404 0.097089 0.247498 0.078036 0.317425 -0.217436 -0.308179 0.424610 0.039072 -0.122857 0.229848 0.086166 -0.205008 0.288107 -0.264022 -0.227252 
programm 0.089611 -0.250060 0.185905 -0.113268 0.015903 -0.105525 0.161409 -0.038272 -0.168760 -0.117817 0.179445 0.230815 -0.376249 -0.107564 0.047688 0.309620 0.041083 0.061880 0.039179 0.043606 -0.153075 0.078576 0.255223 0.019106 -0.255687 -0.132098 -0.310066 0.079872 0.104599 0.125313 0.060857 0.164108 -0.283832 0.040975 -0.012448 0.116718 0.251027 0.079781 0.309028 -0.208147 -0.337244 0.440840 0.037340 -0.113781 0.246198 0.088688 -0.177468 0.325426 -0.287989 -0.204204 
; 0.119670 -0.261314 0.180230 -0.081608 0.023232 -0.097145 0.173981 -0.063263 -0.184894 -0.123673 0.158149 0.197924 -0.361232 -0.059809 0.015755 0.287136 0.042286 0.068269 0.053365 0.080799 -0.141929 0.063519 0.263651 0.024058 -0.285173 -0.133046 -0.332179 0.062689 0.120778 0.129481 0.047103 0.169411 -0.333942 0.024540 0.031753 0.156438 0.250740 0.043884 0.322254 -0.223834 -0.327585 0.397966 0.026006 -0.124650 0.254241 0.100588 -0.204794 0.279218 -0.271137 -0.199591 
regierungskonferenz 0.085293 -0.211751 0.172388 -0.065159 0.011875 -0.143010 0.181753 0.016221 -0.155904 -0.121108 0.218283 0.238304 -0.365429 -0.182149 0.096169 0.350887 0.013474 0.013419 0.003445 0.067803 -0.199276 0.069587 0.264880 -0.048129 -0.248105 -0.162019 -0.278438 0.082262 0.101635 0.123819 0.058360 0.166612 -0.212343 0.009586 -0.028753 0.093650 0.240077 0.134941 0.317730 -0.222886 -0.315935 0.471552 0.007213 -0.090728 0.273742 0.095764 -0.212539 0.323737 -0.266163 -0.199401 
lassen 0.106918 -0.257911 0.209751 -0.093865 0.009137 -0.117860 0.146186 -0.054790 -0.181738 -0.162824 0.161173 0.180905 -0.352348 -0.051613 0.006069 0.303093 0.038300 0.068491 0.030109 0.056140 -0.134326 0.081751 0.261273 0.027950 -0.280495 -0.129434 -0.327064 0.073775 0.099089 0.131631 0.075660 0.179542 -0.303538 0.022907 0.017375 0.143776 0.233294 0.063346 0.324982 -0.223845 -0.338645 0.417262 0.048747 -0.122025 0.264585 0.081693 -0.215856 0.292616 -0.272356 -0.186854 
zusammenarbeit 0.057525 -0.231859 0.173872 -0.131771 -0.024568 -0.128632 0.185255 0.009087 -0.147834 -0.094180 0.238737 0.243028 -0.378991 -0.203329 0.170874 0.361822 0.012551 0.028159 0.006477 -0.000819 -0.219510 0.094527 0.242193 -0.064463 -0.246810 -0.178560 -0.252018 0.092766 0.092691 0.187850 0.050475 0.129347 -0.174815 0.007819 -0.092751 0.047225 0.243137 0.114375 0.305748 -0.209546 -0.323716 0.460542 0.019531 -0.090837 0.264945 0.107891 -0.186887 0.328870 -0.253309 -0.229318 
dabei 0.123051 -0.249592 0.195741 -0.083455 0.012183 -0.101583 0.149719 -0.041306 -0.190518 -0.145261 0.179967 0.188844 -0.361363 -0.064541 0.017756 0.294711 0.034665 0.058980 0.029093 0.085232 -0.157907 0.080055 0.265011 0.029792 -0.260062 -0.130931 -0.319189 0.067981 0.123703 0.133985 0.060236 0.178455 -0.321365 0.037789 0.014622 0.148339 0.252861 0.086178 0.311208 -0.228320 -0.323508 0.416469 0.053836 -0.128915 0.275980 0.094586 -0.221025 0.295093 -0.277776 -0.194518 
schon 0.131395 -0.248246 0.214774 -0.080359 -0.017381 -0.115055 0.134263 -0.041034 -0.180043 -0.138364 0.159133 0.180632 -0.363056 -0.022938 0.018359 0.305797 0.039826 0.086122 0.039040 0.098709 -0.113555 0.068400 0.256728 0.031278 -0.281937 -0.101126 -0.333593 0.077395 0.111973 0.126407 0.079835 0.172995 -0.338202 0.028433 0.043991 0.168465 0.255727 0.076908 0.339978 -0.263444 -0.314006 0.390625 0.030791 -0.125591 0.256508 0.082276 -0.210562 0.296203 -0.258387 -0.199286 
sicherheit 0.082992 -0.263467 0.170380 -0.092843 -0.017052 -0.155554 0.187596 0.014957 -0.140101 -0.093277 0.257131 0.236530 -0.355796 -0.204557 0.146319 0.325698 0.024796 -0.014082 0.015789 0.052248 -0.172691 0.090192 0.233173 -0.041185 -0.276944 -0.146738 -0.247679 0.112499 0.079635 0.156900 0.074898 0.126327 -0.139313 -0.002519 -0.049654 0.073052 0.207288 0.068110 0.293410 -0.196416 -0.315670 0.460433 0.046004 -0.113878 0.252645 0.143440 -0.201934 0.286617 -0.258943 -0.197300 
tun 0.092509 -0.232556 0.207382 -0.099530 -0.013453 -0.141453 0.159527 -0.023150 -0.168913 -0.136625 0.166930 0.201654 -0.352771 -0.090373 0.060200 0.313509 0.025817 0.077646 0.031068 0.088776 -0.157601 0.081574 0.268300 0.024730 -0.273233 -0.138860 -0.309491 0.069661 0.099951 0.140197 0.071732 0.167703 -0.283849 0.002363 0.012700 0.115203 0.237335 0.095910 0.326367 -0.214922 -0.328929 0.430278 0.022928 -0.117746 0.263092 0.100978 -0.198509 0.295871 -0.272900 -0.185121 
zwar 0.078226 -0.242407 0.193337 -0.086621 -0.037049 -0.138289 0.173087 -0.035114 -0.147716 -0.119408 0.201026 0.231401 -0.348613 -0.148376 0.088114 0.310300 0.046158 0.037596 0.027774 0.053758 -0.178952 0.068406 0.243489 -0.008008 -0.250302 -0.124871 -0.287664 0.094600 0.097211 0.135768 0.051407 0.158826 -0.206286 -0.004159 -0.042518 0.104611 0.229250 0.081623 0.297192 -0.207074 -0.313447 0.436447 0.029539 -0.106299 0.260826 0.109079 -0.205732 0.313831 -0.280986 -0.214856 
viele 0.089245 -0.231163 0.184842 -0.074515 -0.028098 -0.117365 0.161790 -0.058029 -0.190318 -0.146514 0.187964 0.206190 -0.349691 -0.065916 0.033457 0.303845 0.052889 0.063588 0.027930 0.071644 -0.143972 0.059967 0.260047 0.027219 -0.269213 -0.125355 -0.319515 0.087667 0.088141 0.130290 0.060469 0.150397 -0.271012 0.021534 0.008989 0.130259 0.214630 0.076606 0.316109 -0.219656 -0.319226 0.415124 0.021564 -0.126291 0.234664 0.081950 -0.228836 0.294103 -0.278091 -0.199772 
bis 0.116282 -0.247824 0.162441 -0.110993 0.031669 -0.117917 0.156424 -0.058826 -0.212381 -0.150704 0.172521 0.229803 -0.362834 -0.102004 0.036828 0.274821 0.015093 0.037409 0.019253 0.051754 -0.161455 0.076026 0.264971 0.030669 -0.277438 -0.153679 -0.310650 0.054450 0.129759 0.140749 0.042955 0.180606 -0.326871 0.044049 0.010543 0.127986 0.254681 0.093860 0.324396 -0.212734 -0.323091 0.430218 0.036941 -0.135507 0.257432 0.117576 -0.185393 0.313852 -0.286742 -0.189157 
selbst 0.099000 -0.234846 0.168159 -0.106809 0.017587 -0.119950 0.148588 -0.055240 -0.185875 -0.138496 0.175087 0.203924 -0.360765 -0.079254 0.027786 0.304072 0.039699 0.047670 0.046892 0.052757 -0.129775 0.082014 0.262724 0.021152 -0.262667 -0.135039 -0.305450 0.088133 0.099041 0.122887 0.062915 0.174046 -0.277548 0.016532 0.014055 0.129506 0.223827 0.085439 0.314179 -0.236310 -0.336562 0.431063 0.049795 -0.131436 0.281835 0.087106 -0.206518 0.307282 -0.273375 -0.176177 
fall 0.084953 -0.258826 0.201179 -0.088280 -0.013629 -0.135224 0.174317 -0.022830 -0.151567 -0.146147 0.189378 0.245183 -0.363929 -0.128953 0.080377 0.346512 0.033907 0.032786 0.033622 0.058710 -0.168261 0.077244 0.244446 -0.030434 -0.251720 -0.132354 -0.287310 0.094747 0.094973 0.140862 0.064340 0.151954 -0.224164 0.003046 -0.020602 0.082051 0.232969 0.093429 0.328280 -0.211448 -0.337039 0.429148 0.020550 -0.123912 0.237914 0.108433 -0.224284 0.301413 -0.251857 -0.214003 
probleme 0.091512 -0.236691 0.195320 -0.116392 -0.000171 -0.143573 0.167752 0.016711 -0.150204 -0.139824 0.202319 0.234003 -0.355391 -0.164824 0.151641 0.362335 0.052526 0.042263 0.010140 0.044656 -0.191659 0.046283 0.272693 -0.041140 -0.235897 -0.161443 -0.283779 0.088498 0.096958 0.157435 0.081457 0.131493 -0.156210 -0.005697 -0.040195 0.060398 0.240362 0.113719 0.346341 -0.220371 -0.347307 0.464133 0.033901 -0.121942 0.259408 0.125122 -0.235460 0.312195 -0.281812 -0.218922 
betrifft 0.103327 -0.232326 0.167389 -0.093187 0.010063 -0.128571 0.173098 -0.049726 -0.172255 -0.121859 0.184641 0.217472 -0.357514 -0.132358 0.079682 0.299437 0.043744 0.051600 0.036693 0.055135 -0.162018 0.085707 0.232964 0.020090 -0.268066 -0.151081 -0.289769 0.087884 0.108899 0.145914 0.042790 0.161098 -0.257465 0.031165 -0.018611 0.124713 0.238545 0.090169 0.315302 -0.206091 -0.315266 0.444384 0.041634 -0.122285 0.256647 0.100226 -0.211080 0.310592 -0.256886 -0.206502 
bedeutung 0.139323 -0.251199 0.195366 -0.081471 0.010031 -0.128561 0.171183 -0.081775 -0.221295 -0.141729 0.165937 0.187222 -0.346054 -0.055976 -0.001178 0.277795 0.032725 0.083053 0.035072 0.074273 -0.120001 0.086413 0.229526 0.039851 -0.277726 -0.092301 -0.313563 0.084534 0.106054 0.097446 0.051152 0.174413 -0.362653 0.049602 0.056596 0.156802 0.251901 0.076087 0.282186 -0.222671 -0.348517 0.384785 0.037034 -0.108542 0.273190 0.098521 -0.192371 0.303104 -0.258014 -0.182174 
mittel 0.108283 -0.256711 0.175341 -0.096422 -0.008519 -0.144737 0.141360 -0.062908 -0.173119 -0.144541 0.198680 0.220092 -0.354639 -0.055872 0.064223 0.272340 0.059317 0.075866 0.037996 0.085634 -0.134523 0.071088 0.243523 0.035968 -0.302294 -0.108508 -0.316986 0.072744 0.102412 0.103445 0.065212 0.159103 -0.324057 -0.018009 0.011318 0.161593 0.229233 0.038469 0.334051 -0.243293 -0.327733 0.395759 0.024541 -0.129299 0.233273 0.104577 -0.190143 0.299328 -0.281818 -0.195995 
ihr 0.133297 -0.247246 0.215242 -0.096374 -0.001942 -0.105418 0.161222 -0.075848 -0.176266 -0.145790 0.151500 0.194618 -0.346628 -0.039447 0.013239 0.295870 0.057050 0.078226 0.037423 0.080787 -0.107050 0.089827 0.251240 0.054997 -0.278534 -0.113817 -0.318406 0.066156 0.108268 0.132060 0.049920 0.151184 -0.349774 0.040850 0.046667 0.177143 0.252131 0.057697 0.334240 -0.230204 -0.321760 0.410069 0.044635 -0.123394 0.246103 0.092229 -0.213754 0.286503 -0.262813 -0.180385 
etwas 0.061766 -0.226980 0.183294 -0.081502 0.006286 -0.136884 0.163952 -0.006830 -0.147750 -0.129383 0.187679 0.246964 -0.363765 -0.141466 0.095249 0.330156 0.023472 0.050935 0.009273 0.061294 -0.188023 0.068223 0.273458 -0.006901 -0.253127 -0.144684 -0.317401 0.095248 0.080603 0.142726 0.049979 0.167889 -0.205543 0.029951 -0.039826 0.082463 0.234555 0.113759 0.310059 -0.196794 -0.332537 0.454281 0.025021 -0.101784 0.235241 0.098883 -0.203403 0.313230 -0.252832 -0.221124 
artikel 0.096148 -0.277153 0.163961 -0.129386 0.025767 -0.134702 0.166723 0.029962 -0.196911 -0.099311 0.213296 0.283186 -0.387277 -0.193395 0.136960 0.274785 -0.026360 0.024679 -0.002191 0.003200 -0.178053 0.028681 0.215231 -0.069612 -0.259491 -0.190497 -0.298945 0.035536 0.148259 0.152931 0.007375 0.163736 -0.264033 0.006707 -0.028490 0.061341 0.242285 0.141507 0.304583 -0.171791 -0.356987 0.445094 0.034941 -0.110464 0.228639 0.120417 -0.189502 0.309967 -0.245946 -0.186240 
% 0.065432 -0.193492 0.162241 -0.134164 0.014827 -0.159484 0.176675 0.046735 -0.151915 -0.130777 0.245918 0.288554 -0.365205 -0.276711 0.240034 0.363402 -0.036702 0.007631 -0.022530 0.022801 -0.239849 0.009378 0.231936 -0.103551 -0.238729 -0.221034 -0.263583 0.085440 0.145861 0.168201 0.050798 0.123676 -0.104389 -0.018424 -0.112005 -0.021548 0.218057 0.156263 0.326726 -0.183417 -0.349255 0.431919 -0.004908 -0.123965 0.224286 0.144537 -0.235429 0.333757 -0.275475 -0.223848 
wichtig 0.134538 -0.243554 0.210806 -0.086283 -0.010422 -0.096298 0.138633 -0.058981 -0.193185 -0.151567 0.177034 0.198732 -0.338044 -0.042798 0.016720 0.266104 0.036918 0.078860 0.052007 0.072523 -0.129853 0.091142 0.235066 0.064883 -0.259493 -0.108020 -0.321241 0.077812 0.091300 0.122075 0.060131 0.178392 -0.324442 0.040899 0.043050 0.189990 0.230616 0.065764 0.324868 -0.219513 -0.307339 0.397878 0.043457 -0.149725 0.239003 0.070925 -0.206356 0.262914 -0.280457 -0.181947 
darüber 0.130350 -0.220881 0.203999 -0.050793 0.021689 -0.080276 0.152470 -0.087928 -0.208848 -0.155185 0.122297 0.160529 -0.344736 0.033678 -0.058835 0.272646 0.057975 0.118179 0.058058 0.113387 -0.113674 0.094877 0.253080 0.089997 -0.286161 -0.104385 -0.354284 0.071192 0.096701 0.084208 0.051663 0.220574 -0.440667 0.066629 0.081845 0.211098 0.272229 0.045632 0.310830 -0.245592 -0.325568 0.379355 0.072282 -0.121549 0.261721 0.069730 -0.189578 0.280636 -0.246454 -0.171225 
einmal 0.070934 -0.226082 0.210571 -0.097622 -0.014724 -0.146692 0.166603 -0.009938 -0.152020 -0.148329 0.193525 0.202599 -0.366047 -0.118551 0.068660 0.325071 0.041335 0.028630 0.022855 0.097589 -0.165835 0.049058 0.245779 0.019044 -0.247996 -0.147383 -0.307855 0.072037 0.117130 0.152229 0.064985 0.155689 -0.229299 0.006838 -0.029275 0.102363 0.220418 0.102849 0.344753 -0.221581 -0.330204 0.426879 0.037481 -0.122727 0.250140 0.080618 -0.208002 0.286053 -0.251521 -0.196028 
wieder 0.154855 -0.260864 0.186702 -0.087778 0.017944 -0.101944 0.172632 -0.115115 -0.222429 -0.182220 0.131657 0.173469 -0.353073 -0.015207 -0.077488 0.263648 0.042478 0.079138 0.037627 0.066500 -0.122416 0.082681 0.260205 0.077377 -0.317094 -0.119640 -0.351075 0.079201 0.106744 0.095732 0.042346 0.199376 -0.424244 0.035889 0.055976 0.221885 0.240683 0.045523 0.311339 -0.245058 -0.305354 0.395089 0.051514 -0.143950 0.288113 0.095163 -0.207319 0.288924 -0.268068 -0.167366 
meinung 0.065814 -0.197393 0.191689 -0.089566 -0.022279 -0.123081 0.153797 -0.035029 -0.162737 -0.140651 0.163715 0.183779 -0.325442 -0.083100 0.045489 0.319751 0.011244 0.082308 0.043402 0.049113 -0.139726 0.088206 0.243962 0.022177 -0.255285 -0.126116 -0.311026 0.089013 0.081308 0.120679 0.077686 0.168025 -0.265510 0.037251 0.001270 0.135666 0.240585 0.079782 0.318095 -0.203610 -0.304547 0.426021 0.024673 -0.113406 0.261045 0.091770 -0.207938 0.307639 -0.265304 -0.179643 
